{"gesture_mlp/batch_normalization/gamma": [1.0, 1.0, 0.22588464617729187, 1.4621851444244385, 1.5296677350997925, 1.4168980121612549, 0.5334886908531189, 1.4974033832550049, 0.9737985730171204, 1.068742275238037, 1.0990715026855469, 1.0554471015930176, 1.9254615306854248, 2.146195888519287, 1.6474809646606445, 1.1158819198608398, 1.6664448976516724, 1.0573631525039673, 0.9410158395767212, 1.4927711486816406, 0.9627689123153687, 1.0043020248413086, 1.2109112739562988, 1.061509132385254, 1.3421212434768677, 1.7996010780334473, 1.3840522766113281, 0.9574683308601379, 1.2163273096084595, 1.1579645872116089, 0.4464307725429535, 1.1564784049987793, 0.8852487206459045, 0.6897299885749817, 1.104329228401184, 0.6282304525375366, 1.1208269596099854, 1.582065463066101, 0.8052966594696045, 0.994568407535553, 1.2277406454086304, 1.0208367109298706, 0.5887900590896606, 1.1136056184768677, 0.7261410355567932, 0.5556392073631287, 1.0876418352127075, 0.8040939569473267, 0.9722985029220581, 1.407387614250183, 1.3195191621780396, 1.159926176071167, 1.2677475214004517, 1.4187228679656982, 0.7913658618927002, 1.1246070861816406, 0.9439181685447693, 1.0074596405029297, 1.0691596269607544, 0.9513533115386963, 1.7054378986358643, 1.8271242380142212, 1.4077539443969727], "gesture_mlp/batch_normalization/beta": [-0.4427763521671295, -0.5122619867324829, -0.6000953912734985, -0.029021162539720535, 0.08244825899600983, -0.02887982688844204, -0.0998912900686264, 0.09707019478082657, -0.2447204291820526, 0.1573793590068817, 0.06195267662405968, -0.06792141497135162, -0.003504248568788171, 0.008635833859443665, -0.16658402979373932, -0.15870676934719086, 0.15300318598747253, 0.09785853326320648, 0.22012683749198914, 0.10431704670190811, -0.17431733012199402, -0.12717726826667786, -0.029193826019763947, -0.16184672713279724, 0.02691952884197235, -0.07826507091522217, -0.16381806135177612, 0.19693230092525482, 0.11738612502813339, -0.19506844878196716, 0.028453540056943893, -0.07703442871570587, -0.07752520591020584, 0.04262290894985199, -0.07538413256406784, -0.301682710647583, 0.16521283984184265, -0.021245980635285378, -0.10770528763532639, -0.0003256142954342067, 0.09158607572317123, -0.2342282235622406, -0.06537550687789917, 0.19534365832805634, -0.23020584881305695, -0.04492705687880516, -0.09007471054792404, -0.08872711658477783, -0.1279132068157196, 0.06585372984409332, -0.10873544961214066, -0.12506642937660217, 0.21076615154743195, -0.051576774567365646, -0.2046302855014801, 0.13012205064296722, -0.09568027406930923, 0.05973665788769722, 0.09817977994680405, -0.16492889821529388, -0.014174857176840305, -0.09802377223968506, -0.0805615708231926], "gesture_mlp/batch_normalization/moving_mean": [0.0, 0.0, -1.8688123759602604e-07, 0.010032448917627335, -0.33569657802581787, -0.010509971529245377, 0.02124973200261593, -0.6693686842918396, -0.041709449142217636, 0.03859414532780647, -0.8844600915908813, -0.07953355461359024, 0.04159095138311386, -1.0247793197631836, -0.11474116891622543, 0.02182832546532154, -0.8617693781852722, -0.08017413318157196, 0.05596204474568367, -1.0551841259002686, -0.15621298551559448, 0.05896060913801193, -1.124672770500183, -0.1973109245300293, 0.057918183505535126, -1.195145845413208, -0.22031371295452118, 0.03357059508562088, -0.7516220808029175, -0.121375173330307, 0.06934797763824463, -0.9073510766029358, -0.19310545921325684, 0.05762704461812973, -0.9055517911911011, -0.20751647651195526, 0.04251861199736595, -0.9301022887229919, -0.21239081025123596, 0.04488110914826393, -0.5969280004501343, -0.1622851938009262, 0.08481385558843613, -0.7316153645515442, -0.23231850564479828, 0.07985837757587433, -0.7059575915336609, -0.21280820667743683, 0.06906034797430038, -0.7109012603759766, -0.1914101094007492, 0.053869716823101044, -0.421863317489624, -0.20300287008285522, 0.08927226811647415, -0.563582718372345, -0.24656426906585693, 0.0914267972111702, -0.5752532482147217, -0.2165369987487793, 0.0882977843284607, -0.5985007286071777, -0.1863883137702942], "gesture_mlp/batch_normalization/moving_variance": [0.0, 0.0, 3.82885086483431e-12, 0.05346314236521721, 0.07482612878084183, 0.018457770347595215, 0.19075898826122284, 0.2526344358921051, 0.04708057641983032, 0.38052207231521606, 0.4615759253501892, 0.07357490807771683, 0.561145544052124, 0.6373589634895325, 0.1053086519241333, 0.286565899848938, 0.13415595889091492, 0.09368517994880676, 0.6181082129478455, 0.3615333139896393, 0.15568052232265472, 0.7310388684272766, 0.5688297152519226, 0.1890232414007187, 0.822742223739624, 0.7707609534263611, 0.2113204449415207, 0.32308077812194824, 0.09726288169622421, 0.07376940548419952, 0.680854082107544, 0.3493363857269287, 0.12974269688129425, 0.6885510683059692, 0.5273325443267822, 0.14672669768333435, 0.699777364730835, 0.6657688021659851, 0.16205769777297974, 0.37039482593536377, 0.10534470528364182, 0.05786144733428955, 0.6999394297599792, 0.31455469131469727, 0.10749094188213348, 0.6931240558624268, 0.4208068251609802, 0.12066251784563065, 0.700939416885376, 0.49974116683006287, 0.12915551662445068, 0.41901522874832153, 0.146965891122818, 0.04991573467850685, 0.7001105546951294, 0.31806665658950806, 0.08730989694595337, 0.7306704521179199, 0.4175422787666321, 0.10389389842748642, 0.7761406302452087, 0.49198290705680847, 0.11723800003528595], "gesture_mlp/dense/kernel": [[0.32727569341659546, 0.19445733726024628, 0.055644307285547256, 0.2541833519935608, 0.07645683735609055, 0.16814707219600677, 0.16486163437366486, 0.3011361062526703, 0.17593584954738617, 0.3177158236503601, 0.21859268844127655, 0.3226515054702759, 0.30096855759620667, 0.15090452134609222, 0.09572359919548035, 0.2991848587989807, 0.1655493527650833, -0.06595736742019653, 0.19675059616565704, 0.2467978298664093, 0.18559493124485016, 0.25278910994529724, -0.08565451204776764, 0.1120627298951149, 0.21946607530117035, 0.028955506160855293, 0.4796164929866791, 0.038285836577415466, 0.23075076937675476, 0.2060067057609558, 0.3087199330329895, 0.08290616422891617, 0.21441695094108582, -0.01593744195997715, 0.33934786915779114, 0.3167569637298584, 0.106052927672863, 0.4008295238018036, 0.11257492750883102, 0.2672426104545593, 0.42332276701927185, 0.2470298409461975, 0.18443995714187622, 0.3430349826812744, 0.09052153676748276, 0.06272739917039871, 0.056092847138643265, 0.09964747726917267, 0.11110424995422363, 0.15159116685390472, 0.21930555999279022, 0.19057998061180115, 0.24307028949260712, 0.16341163218021393, 0.08025969564914703, 0.10678291320800781, -0.12317684292793274, 0.10100169479846954, 0.1295318603515625, 0.08200215548276901, 0.2761121988296509, 0.3948570191860199, 0.42176321148872375, 0.1437620371580124, 0.20783072710037231, 0.23003922402858734, 0.30376115441322327, 0.21332581341266632, -0.002477938774973154, 0.16581784188747406, 0.28137755393981934, 0.46321040391921997, 0.3412688076496124, -0.08500326424837112, 0.515468180179596, 0.17729632556438446, 0.23852740228176117, -0.041592519730329514, 0.23951581120491028, 0.33052685856819153, 0.12883517146110535, 0.3966158628463745, 0.195883646607399, 0.2877161204814911, 0.22223982214927673, 0.2928687632083893, -0.03256643936038017, 0.25717490911483765, 0.33835214376449585, 0.31634336709976196, 0.069667287170887, 0.12444715201854706, 0.1269092708826065, 0.24686199426651, 0.1787542700767517, 0.11181383579969406, 0.03687972575426102, 0.19245459139347076, 0.3788265883922577, 0.21861311793327332, 0.2889704406261444, -0.006974645424634218, 0.20386376976966858, 0.2113010734319687, 0.07533841580152512, -0.029178595170378685, 0.15228278934955597, 0.07292462885379791, 0.1657327115535736, 0.3399971127510071, 0.03697548061609268, -0.06186895817518234, 0.11152477562427521, 0.01041433960199356, 0.05824899673461914, 0.2652203142642975, 0.4041661322116852, -0.042673587799072266, 0.0629519522190094, 0.15523862838745117, 0.027340400964021683, 0.021330293267965317, 0.2737537622451782, -0.02604464627802372, 0.2498851865530014, -0.03597507253289223, 0.16929441690444946, -0.0014397366903722286], [0.26445260643959045, 0.2481401115655899, 0.19404296576976776, 0.10334554314613342, 0.17921528220176697, 0.19372060894966125, 0.18236380815505981, 0.08593561500310898, -0.009133883751928806, 0.3178230822086334, 0.2849016487598419, 0.07479680329561234, 0.008435634896159172, 0.007145987823605537, 0.12177479267120361, 0.023421891033649445, 0.02254263125360012, 0.23828954994678497, 0.11472176015377045, 0.11024053394794464, 0.11394522339105606, 0.18230578303337097, 0.018741808831691742, 0.0033382708206772804, 0.1943851262331009, 0.3023342490196228, 0.33363452553749084, 0.019586708396673203, 0.17992816865444183, 0.03812526538968086, -0.020471319556236267, 0.11068038642406464, 0.35172244906425476, 0.010118098929524422, 0.15944187343120575, 0.29602810740470886, 0.2543793320655823, 0.3829807639122009, 0.15588532388210297, 0.38419556617736816, 0.19421270489692688, 0.2912220060825348, 0.05277042090892792, 0.1923379898071289, -0.04168447107076645, 0.1625085473060608, 0.031073495745658875, 0.1562114804983139, 0.21460075676441193, 0.23812173306941986, 0.34770068526268005, 0.15790550410747528, 0.13479763269424438, 0.43290212750434875, 0.07904970645904541, -5.19335299031809e-05, 0.14675040543079376, 0.09394409507513046, 0.029261648654937744, 0.03368142992258072, 0.41973936557769775, 0.3768693506717682, 0.22290964424610138, 0.09967824816703796, 0.06244681775569916, 0.2104322761297226, 0.06749795377254486, 0.25972864031791687, 0.0232232715934515, 0.36258208751678467, 0.3990456163883209, 0.5044708251953125, 0.5175021290779114, 0.12384708970785141, 0.49087777733802795, 0.17866522073745728, 0.05092940479516983, 0.14713016152381897, 0.44919830560684204, 0.30687615275382996, 0.2761211395263672, 0.1571020781993866, -0.03430697321891785, 0.33825579285621643, 0.21920537948608398, 0.3007149398326874, 0.28176236152648926, 0.3098529875278473, 0.42940065264701843, 0.23963430523872375, 0.20242047309875488, 0.3107494115829468, 0.16006571054458618, 0.11264985799789429, 0.11745305359363556, 0.1042603999376297, 0.33248311281204224, 0.11133658140897751, 0.08970681577920914, 0.21429072320461273, 0.22161993384361267, 0.2996419370174408, 0.12794210016727448, 0.15974122285842896, 0.23800237476825714, 0.12951800227165222, 0.09166789054870605, 0.20134061574935913, 0.0419481135904789, 0.2335425466299057, -0.05115313455462456, -0.06208663806319237, 0.11490447074174881, 0.12475050985813141, 0.24393844604492188, 0.07136576622724533, 0.36693519353866577, -0.010813656263053417, 0.23288188874721527, 0.2281898409128189, 0.107242152094841, 0.361628919839859, 0.224740132689476, 0.1603206843137741, 0.22953253984451294, 0.08526822179555893, 0.4338799715042114, 0.0952717512845993], [0.2983241379261017, 0.059187185019254684, 0.3342604637145996, 0.021113956347107887, 0.14619214832782745, 0.13773126900196075, 0.10766955465078354, 0.17320530116558075, 0.024065693840384483, 0.15564468502998352, 0.22959467768669128, 0.23778876662254333, 0.15607208013534546, 0.06551280617713928, 0.27638164162635803, 0.15921323001384735, 0.3027205169200897, 0.2107522338628769, 0.04673932120203972, 0.12418016046285629, 0.2914257347583771, 0.1434553861618042, -0.047827884554862976, 0.0008278395398519933, 0.2483510673046112, 0.08110953122377396, 0.4615824520587921, 0.0502772256731987, 0.2070128321647644, 0.057189129292964935, 0.04994406923651695, 0.24682340025901794, 0.047550003975629807, 0.2856284976005554, 0.10561195015907288, 0.027521725744009018, 0.19585035741329193, 0.5196312069892883, 0.12035109102725983, 0.2505284547805786, 0.2558392286300659, 0.05540512502193451, 0.16557811200618744, 0.4565270245075226, -0.009561508893966675, 0.11969778686761856, 0.2343362420797348, 0.19608351588249207, 0.10052129626274109, -0.01477704755961895, 0.3104828894138336, 0.17632894217967987, 0.2506336569786072, 0.33675140142440796, 0.1675974726676941, 0.06365141272544861, 0.1458662897348404, 0.20974944531917572, 0.321826308965683, 0.20985446870326996, 0.30751416087150574, 0.13872234523296356, 0.4843675494194031, 0.1432933509349823, 0.3442557156085968, 0.21853837370872498, 0.3411221206188202, 0.18429486453533173, 0.18140973150730133, 0.31409648060798645, 0.5274527072906494, 0.31326398253440857, 0.36663633584976196, 0.11514133214950562, 0.4099009335041046, 0.06023285165429115, 0.29763853549957275, 0.10020096600055695, 0.2903842031955719, 0.3115842640399933, 0.05645360052585602, 0.18823017179965973, 0.24037647247314453, 0.45598888397216797, 0.24724102020263672, -0.028873957693576813, 0.361661434173584, 0.2677938640117645, 0.34551557898521423, 0.3649275600910187, 0.16331015527248383, 0.08698289096355438, 0.025570565834641457, 0.1630357801914215, 0.19846738874912262, 0.2165205329656601, 0.31517842411994934, 0.01663779467344284, 0.3113946318626404, 0.11632832139730453, 0.09891925007104874, 0.08841458708047867, 0.29446911811828613, -0.017266014590859413, 0.066931813955307, 0.2732350528240204, 0.14642949402332306, 0.06579983979463577, 0.1812278926372528, 0.32590484619140625, 0.1072046086192131, 0.13740965723991394, 0.1456664651632309, 0.041721947491168976, 0.13636265695095062, 0.3241010308265686, 0.4218637943267822, 0.2865492105484009, 0.30064138770103455, 0.07964985072612762, 0.28506773710250854, 0.14448696374893188, -0.0019882936030626297, 0.13454164564609528, 0.18436972796916962, 0.1602676510810852, 0.43419691920280457, 0.10586956888437271], [-0.758413553237915, -0.35181528329849243, 0.17666907608509064, 0.3285392224788666, -0.13039939105510712, -0.15330302715301514, 0.1936499923467636, -0.01245665643364191, 0.04868527501821518, 0.09890518337488174, 0.13976076245307922, -0.3577199876308441, -0.06198735535144806, 0.1779749095439911, -0.179568350315094, -0.04326366260647774, 0.047919340431690216, 0.22578881680965424, -0.0063891904428601265, 0.32867130637168884, -0.13877315819263458, 0.3532539904117584, -0.0809713825583458, 0.02139209769666195, 0.520485520362854, -0.2596210241317749, -0.18983298540115356, 0.27031463384628296, 0.33277231454849243, 0.09917701035737991, 0.043264102190732956, -0.016023628413677216, 0.1335916966199875, 0.043715909123420715, 0.09921135008335114, -0.05313298478722572, 0.2050798237323761, -0.14777857065200806, -0.013626998290419579, -0.025142909958958626, -0.07984450459480286, 0.005399574525654316, 0.009757588617503643, 0.16593264043331146, -0.07254080474376678, 0.4097406566143036, 0.31369471549987793, -0.2843516170978546, 0.16060209274291992, -0.025110142305493355, 0.39210250973701477, -0.027970794588327408, 0.33349519968032837, -0.0013444824144244194, 0.1457894742488861, 0.03265029564499855, -0.004622009117156267, -0.21462073922157288, -0.1633060872554779, -0.1532987803220749, -0.06817077845335007, 0.017903713509440422, 0.009826377034187317, -0.09835256636142731, 0.12964050471782684, 0.15152660012245178, 0.24409489333629608, 0.0979183092713356, -0.1269683688879013, -0.4159495234489441, -0.02567230723798275, -0.078660748898983, -0.21340958774089813, 0.028361523523926735, 0.12826719880104065, 0.27729782462120056, -0.2857328951358795, 0.36269158124923706, 0.03387663513422012, 0.0173298642039299, 0.1563161313533783, -0.1297166347503662, 0.022767888382077217, -0.08397241681814194, -0.42821046710014343, -0.15899482369422913, -0.0731891393661499, 0.3929612338542938, -0.0173882395029068, -0.020772863179445267, 0.24886542558670044, 0.06621766090393066, -0.03749183192849159, -0.3402180075645447, 0.274949848651886, 0.12963902950286865, 0.059570662677288055, 0.16151197254657745, 0.03207458183169365, -0.03266860544681549, -0.002316695172339678, 0.10864464193582535, 0.2114385962486267, -0.02976287342607975, -0.15796147286891937, 0.19561342895030975, 0.5497536063194275, 0.39399227499961853, 0.01070605032145977, -0.5650108456611633, -0.19859111309051514, 0.005006569903343916, 0.036279164254665375, 0.07355225086212158, 0.13590125739574432, 0.09438515454530716, 0.13164259493350983, 0.4966756999492645, 0.0954914465546608, -0.07724616676568985, 0.07294195890426636, 0.17055122554302216, 0.1644190102815628, 0.12374938279390335, 0.05841541290283203, 0.07529818266630173, 0.027935458347201347, -0.23664751648902893], [-0.21996040642261505, 0.28422319889068604, 0.4229506552219391, -0.051639799028635025, 0.0359228141605854, 0.16952922940254211, -0.37284186482429504, 0.24058754742145538, -0.22604933381080627, 0.2254202961921692, -0.2567112147808075, -0.21197326481342316, 0.06707404553890228, -0.04013940319418907, -0.7042023539543152, -0.19546712934970856, -0.11975855380296707, -0.4243244528770447, 0.14274215698242188, 0.1999668926000595, -0.34615451097488403, 0.5585612654685974, -0.3219086527824402, -0.05112770199775696, 0.2563490867614746, -0.4440397620201111, 0.04470280185341835, -0.16759701073169708, 0.2963562309741974, 0.0546402670443058, -0.26303181052207947, 0.05677957460284233, 0.2568107545375824, -0.09593892842531204, -0.2141929268836975, 0.3786826729774475, -0.26974934339523315, -0.24292542040348053, 0.11336324363946915, 0.014130531810224056, -0.31808754801750183, 0.005548922810703516, 0.3961479961872101, -0.3335995376110077, 0.12939907610416412, 0.19930878281593323, 0.007496260106563568, 0.10874317586421967, 0.019107606261968613, -0.010485616512596607, 0.26171180605888367, 0.003595154033973813, 0.19622711837291718, -0.18050210177898407, 0.23842333257198334, 0.007213043514639139, -0.04525056481361389, -0.049715906381607056, -0.010842457413673401, -0.026054205372929573, -0.2207607477903366, 0.06912383437156677, -0.25615420937538147, 0.14455245435237885, 0.3673081398010254, 0.17288818955421448, 0.3001438081264496, -0.1401025503873825, 0.22964049875736237, 0.27601689100265503, -0.14224953949451447, -0.16360296308994293, 0.03615300729870796, 0.420543909072876, -0.24638362228870392, 0.15521414577960968, -0.024984052404761314, -0.277942955493927, 0.15644203126430511, 0.11837951838970184, 0.3095439672470093, 0.12858915328979492, -0.12180425226688385, -0.181093230843544, -0.32229989767074585, 0.21067218482494354, 0.09340011328458786, 0.046366699039936066, 0.16288268566131592, -0.2950690686702728, -0.12559932470321655, -0.20375493168830872, -0.09507289528846741, -0.46324822306632996, 0.30160707235336304, 0.25143712759017944, 0.18500815331935883, -0.2386469841003418, -0.05343317613005638, -0.11555936932563782, -0.49563494324684143, -0.05740963667631149, 0.22543996572494507, -0.08566203713417053, -0.27979353070259094, 0.14197766780853271, -0.03954259678721428, 0.1649610996246338, 0.4167318046092987, -0.03916208818554878, -0.0007044264348223805, -0.16411760449409485, -0.02796970121562481, 0.002908415161073208, 0.15819498896598816, -0.21338821947574615, -0.1294051557779312, -0.21563401818275452, -0.2670283019542694, -0.024639122188091278, 0.1545923352241516, 0.19695250689983368, 0.15150317549705505, 0.19368486106395721, -0.08521030843257904, 0.15313653647899628, 0.2738237977027893, 0.15612123906612396], [-0.17764991521835327, 0.04701065272092819, -0.22663524746894836, -0.22653250396251678, -0.19055211544036865, -0.13495884835720062, 0.02691221609711647, 0.2808054983615875, 0.031628187745809555, -0.11571338027715683, 0.002931299153715372, -0.24548189342021942, 0.15385541319847107, 0.0920744240283966, -0.43808233737945557, 0.09170645475387573, 0.07253532111644745, -0.018376141786575317, -0.41002127528190613, 0.35197019577026367, 0.0012893147068098187, -0.31464120745658875, 0.004444160033017397, 0.09602046757936478, 0.19976352155208588, 0.06016886234283447, 0.10648612678050995, -0.22086268663406372, -0.13087746500968933, 0.01782267913222313, 0.09002944082021713, -0.13801561295986176, -0.23125149309635162, -0.31739866733551025, -0.1780250370502472, -0.031418561935424805, 0.49426016211509705, 0.09395520389080048, 0.18487022817134857, -0.03961235284805298, 0.17446589469909668, 0.2991359531879425, -0.11919090896844864, 0.25059404969215393, 0.29681113362312317, -0.0437086820602417, 0.08586601167917252, -0.24161650240421295, -0.11454597860574722, 0.04007507488131523, 0.18469956517219543, 0.3535092771053314, 0.1314278095960617, 0.10049127787351608, -0.1845245212316513, -0.3366520404815674, 0.22504529356956482, 0.15123650431632996, -0.12587079405784607, -0.19534561038017273, 0.0923013910651207, -0.45184701681137085, -0.03161495923995972, 0.27941933274269104, 0.4079514443874359, 0.36542701721191406, -0.1885322779417038, 0.354011207818985, -0.11134599894285202, 0.10160382091999054, -0.1666450798511505, -0.25607964396476746, -0.028679078444838524, 0.18454496562480927, 0.10015710443258286, -0.24725225567817688, -0.4284002482891083, 0.2611716687679291, -0.1501728892326355, -0.26706862449645996, 0.09696932137012482, -0.1786288022994995, -0.1497069001197815, 0.1914519965648651, -0.30579814314842224, -0.029253657907247543, 0.5206406116485596, 0.15696865320205688, -0.23001550137996674, 0.10110096633434296, 0.017605207860469818, -0.002819263143464923, -0.03838405758142471, 0.21796651184558868, -0.12824814021587372, 0.01865524798631668, 0.356912761926651, 0.012328606098890305, -0.1728600412607193, 0.017748458310961723, -0.0533168688416481, -0.3140069544315338, -0.08306869119405746, -0.03150293976068497, 0.18531404435634613, -0.06060082092881203, 0.24726681411266327, 0.021972469985485077, -0.19185151159763336, -0.27263954281806946, 0.06494132429361343, -0.24119845032691956, -0.24856388568878174, 0.3742014765739441, 0.2678741216659546, 0.0902082771062851, 0.11529264599084854, -0.006306800991296768, 0.0559978224337101, 0.09144513309001923, 0.1847001165151596, -0.20076587796211243, -0.3495444655418396, -0.019661013036966324, 0.1699618399143219, 0.12946785986423492, -0.21571901440620422, 0.07216525822877884], [-0.19798140227794647, -0.1892448514699936, -0.09210601449012756, 0.17736443877220154, 0.05258490890264511, -0.282500296831131, 0.13149994611740112, -0.0712883472442627, -0.22116845846176147, -0.16530302166938782, -0.12638600170612335, 0.09091848134994507, 0.10740943253040314, 0.14812277257442474, -0.07557681202888489, 0.05573493614792824, 0.11001678556203842, 0.05581989511847496, 0.23228950798511505, -0.021056273952126503, 0.03457385674118996, 0.23041720688343048, -0.0999957025051117, -0.0507805198431015, 0.08177729696035385, 0.1880350261926651, 0.13972355425357819, 0.2108718752861023, 0.2203546166419983, 0.01399389747530222, -0.22513529658317566, 0.06785841286182404, 0.1687876284122467, 0.04932466521859169, -0.09095831960439682, 0.10172135382890701, 0.27329781651496887, -0.01008579321205616, 0.02026606723666191, 0.2946425974369049, 0.3320854902267456, -0.19012673199176788, 0.0319596603512764, 0.02464943565428257, 0.04546884447336197, 0.13954581320285797, -0.08875669538974762, -0.23667943477630615, 0.056908298283815384, -0.06252875179052353, -0.010860532522201538, 0.13549943268299103, 0.10978395491838455, -0.03960477560758591, 0.23439742624759674, 0.057900287210941315, 0.12843994796276093, -0.04704244062304497, -0.19704817235469818, 0.08103892207145691, 0.10900909453630447, 0.08473823964595795, 0.07133189588785172, -0.11642962694168091, -0.11412594467401505, 0.09500996768474579, -0.024905169382691383, -0.003675338812172413, -0.016776466742157936, 0.05892707034945488, 0.04651863873004913, 0.10342995822429657, 0.010314248502254486, -0.04148977994918823, -0.03698232024908066, 0.16316191852092743, -0.03440232202410698, -0.08209430426359177, 0.019829563796520233, -0.06519678235054016, 0.0783616304397583, 0.046035706996917725, -0.20169368386268616, 0.07489555329084396, 0.08336786925792694, -0.0016624523559585214, 0.17076948285102844, 0.233519047498703, -0.010194034315645695, -0.10620705783367157, -0.04740256443619728, 0.23650270700454712, -0.033295758068561554, -0.12737658619880676, -0.09414820373058319, 0.03915044665336609, 0.057862289249897, -0.20788539946079254, 0.016099218279123306, 0.0366663858294487, -0.12115856260061264, 0.18497321009635925, 0.16414017975330353, 0.08269479870796204, -0.025661317631602287, 0.06861370801925659, 0.35341697931289673, 0.08222471922636032, 0.10027873516082764, -0.3656010329723358, 0.08008574694395065, -0.2944011688232422, -0.046611614525318146, 0.054416317492723465, 0.06485983729362488, -0.10070861130952835, -0.09877336770296097, 0.025085115805268288, 0.16413624584674835, 0.2214851677417755, -0.04204253852367401, 0.16138383746147156, -0.014662722125649452, 0.08931493759155273, -0.07135818153619766, -0.1421125829219818, -0.0036651024129241705, 0.2154102325439453], [-0.259986937046051, 0.18805992603302002, -0.028774049133062363, -0.07714132219552994, 0.40688395500183105, 0.16318149864673615, -0.2556650936603546, 0.10458448529243469, -0.23602376878261566, -0.157383531332016, 0.14319822192192078, 0.07219196110963821, 0.32665374875068665, 0.031730495393276215, -0.4729050099849701, 0.03892780840396881, 0.09271865338087082, -0.05736586079001427, 0.15617896616458893, 0.078858882188797, -0.14637120068073273, 0.23398227989673615, -0.34029099345207214, -0.09447318315505981, -0.09100772440433502, -0.0760844275355339, -0.6352208852767944, -0.026808494701981544, -0.27868226170539856, -0.04328448325395584, 0.09479177743196487, 0.16013824939727783, 0.33649566769599915, -0.012196732684969902, -0.08969945460557938, 0.40524181723594666, -0.1294880360364914, -0.31726592779159546, 0.15864203870296478, 0.26374101638793945, -0.21494145691394806, -0.24294619262218475, 0.0831276997923851, -0.18911117315292358, 0.2558675706386566, -0.1290282905101776, -0.2177525907754898, 0.1495068222284317, -0.049449704587459564, -0.19114075601100922, -0.09302977472543716, -0.10626936703920364, 0.2402610033750534, 0.0981660708785057, 0.3124471604824066, -0.30562976002693176, 0.16532930731773376, -0.2317219376564026, -0.17965954542160034, 0.2806699872016907, -0.2444365918636322, 0.030514754354953766, -0.04806869104504585, -0.07844698429107666, 0.07380786538124084, -0.09109672904014587, 0.09710436314344406, -0.5029473304748535, 0.17674681544303894, 0.37156274914741516, 0.13128413259983063, -0.2510748505592346, 0.25224560499191284, 0.10286075621843338, 0.07235069572925568, 0.1429019421339035, -0.12551948428153992, -0.5530804991722107, 0.09610311686992645, 0.25334081053733826, 0.11411655694246292, 0.09189619868993759, 0.10166935622692108, 0.3664693534374237, 0.12020940333604813, 0.12692973017692566, -0.49192675948143005, -0.06398717314004898, -0.026429718360304832, -0.1618075966835022, -0.25541868805885315, 0.158731147646904, -0.4752686023712158, -0.1496077924966812, -0.09947221726179123, 0.15976518392562866, -0.10917216539382935, -0.33073437213897705, -0.11084411293268204, 0.35089385509490967, -0.1110328733921051, -0.04138217121362686, 0.0821516364812851, -0.05988461896777153, -0.21540161967277527, 0.15088064968585968, 0.003298630239441991, -0.08205992728471756, 0.36041259765625, 0.34621521830558777, 0.004139752592891455, -0.33653220534324646, -0.3440523147583008, -0.24100199341773987, 0.029477981850504875, -0.200967937707901, 0.10594022274017334, -0.11463180184364319, -0.1305159628391266, 0.014745758846402168, -0.2089996486902237, 0.4188584089279175, -0.16292472183704376, 0.3414035439491272, -0.08306817710399628, -0.20303119719028473, -0.27761098742485046, 0.365568071603775], [0.1542118638753891, -0.18284013867378235, -0.09972620755434036, 0.3314390182495117, 0.039309702813625336, 0.23633617162704468, 0.0258825421333313, -0.12983368337154388, -0.011884663254022598, 0.17743714153766632, 0.04761241003870964, -0.38373368978500366, -0.080323725938797, -0.07783519476652145, -0.0034960720222443342, 0.20836241543293, -0.09114591777324677, -0.116782046854496, 0.13784454762935638, 0.4757987856864929, -0.20014002919197083, 0.08879215270280838, -0.1559784859418869, 0.2816714644432068, 0.22418619692325592, -0.08739020675420761, -0.15729956328868866, 0.005210178904235363, 0.0699530839920044, -0.197097510099411, -0.09795599430799484, -0.167674720287323, 0.006455461960285902, -0.025873122736811638, 0.0007250336348079145, 0.09267083555459976, 0.3456256687641144, 0.09221290796995163, -0.09805230051279068, 0.11615525931119919, 0.06947141885757446, 0.2207089066505432, 0.11602477729320526, -0.043756768107414246, 0.3243371248245239, 0.1017877534031868, -0.1974029242992401, -0.1559450924396515, 0.1905158907175064, 0.037683699280023575, 0.3287815451622009, -0.01965612918138504, 0.15601971745491028, -0.003629267681390047, -0.16699466109275818, 0.008524234406650066, 0.15863856673240662, 0.3068125247955322, -0.163693368434906, 0.10192426294088364, 0.08354002237319946, 0.09872714430093765, 0.1147269532084465, 0.2061758041381836, 0.03974773362278938, 0.1261875331401825, -0.18267640471458435, 0.33611586689949036, 0.0874481201171875, 0.32078951597213745, 0.0142012694850564, -0.23752611875534058, 0.25397059321403503, 0.058770641684532166, -0.10507870465517044, -0.05868862196803093, -0.04887988045811653, 0.1176411435008049, 0.26861685514450073, -0.09585859626531601, -0.15439654886722565, -0.264395534992218, 0.04537368193268776, -0.1384209543466568, 0.007467619609087706, 0.053013138473033905, 0.2548876404762268, 0.36632800102233887, 0.009337355382740498, -0.1598205417394638, 0.20469801127910614, 0.06898345053195953, 0.08192147314548492, 0.11369278281927109, -0.2050752490758896, 0.15338970720767975, 0.028189105913043022, -0.00953197106719017, 0.028958125039935112, -0.35579007863998413, 0.06873859465122223, -0.10277599096298218, -0.08962691575288773, 0.06800094246864319, 0.08334919065237045, 0.03786834329366684, 0.22509795427322388, 0.18360672891139984, 0.03702962398529053, -0.2580035328865051, -0.18455134332180023, 0.009680467657744884, -0.07168809324502945, 0.04316176846623421, 0.39377444982528687, 0.18568387627601624, 0.19105492532253265, -0.10152168571949005, 0.1220545768737793, 0.054683003574609756, 0.27462127804756165, -0.11775724589824677, -0.011175503022968769, 0.036676716059446335, 0.14929527044296265, 0.199334979057312, 0.18977509438991547, -0.03131994977593422], [0.23188842833042145, 0.029599741101264954, -0.15596327185630798, 0.026263466104865074, 0.3587520718574524, -0.21737273037433624, -0.0012419242411851883, -0.11498664319515228, -0.47444310784339905, -0.3101414144039154, -0.1412190943956375, 0.16069386899471283, -0.05377814173698425, -0.04236771911382675, -0.30046144127845764, 0.14683637022972107, -0.03883552551269531, 0.11662232130765915, 0.08416468650102615, -0.17608892917633057, 0.12216336280107498, -0.15528424084186554, 0.13734595477581024, 0.0728984847664833, -0.33759891986846924, 0.12887969613075256, 0.2330283224582672, 0.15521711111068726, -0.22353391349315643, -0.24553336203098297, -0.0793226808309555, -0.14718495309352875, 0.061150431632995605, 0.33583393692970276, -0.2751632630825043, -0.08801792562007904, 0.013409941457211971, -0.021390091627836227, -0.20514827966690063, 0.2849619686603546, -0.015459613874554634, -0.03309385105967522, 0.08432848751544952, -0.37543785572052, -0.16328364610671997, -0.2142009288072586, -0.3440806567668915, -0.15722602605819702, 0.09479792416095734, 0.13925500214099884, 0.13131779432296753, 0.02467362955212593, -0.0832730308175087, -0.051658593118190765, 0.013293566182255745, 0.18103301525115967, -0.112413689494133, 0.027018191292881966, -0.17788074910640717, -0.22580406069755554, -0.0511760376393795, 0.051439668983221054, 0.35276344418525696, -0.09650002419948578, -0.2428005039691925, -0.25779151916503906, 0.0011468591401353478, -0.05179087817668915, 0.27817437052726746, -0.09193937480449677, 0.12299763411283493, -0.06729414314031601, 0.20056036114692688, 0.1176895722746849, -0.007175753358751535, 0.1954178363084793, -0.053486134856939316, -0.4779990017414093, 0.1822652369737625, 0.1344819962978363, -0.01863017864525318, -0.2619432806968689, -0.07992371171712875, -0.0681534856557846, -0.11501877009868622, 0.2394484281539917, -0.1216871589422226, 0.028014788404107094, -0.2118588238954544, -0.330317884683609, -0.20887790620326996, 0.07162068039178848, -0.3092598617076874, 0.14407245814800262, -0.17728394269943237, -0.4378964602947235, -0.11659778654575348, -0.14839278161525726, -0.053657662123441696, -0.04256386682391167, -0.2046554684638977, -0.19386813044548035, -0.08723639696836472, 0.07917579263448715, -0.21101127564907074, 0.037146687507629395, -0.1610085368156433, -0.2663656771183014, 0.08676880598068237, -0.07709755748510361, 0.030934106558561325, -0.001805582083761692, -0.05387406051158905, 0.05486377701163292, -0.3329254686832428, -0.1746656596660614, 0.07782677561044693, 0.053383663296699524, -0.0018695505568757653, 0.26112768054008484, -0.06492830812931061, -0.0650666356086731, -0.007134002633392811, 0.2334720641374588, -0.19292062520980835, -0.10150521248579025, -0.18942636251449585, 0.25165224075317383], [-0.03360171243548393, 0.0779157355427742, 0.13091273605823517, 0.10464975982904434, 0.1949315369129181, -0.0782630443572998, 0.3265417516231537, 0.054971273988485336, 0.03323744237422943, 0.035709597170352936, 0.07924778014421463, -0.03803538903594017, 0.34768542647361755, 0.06950006633996964, 0.20287461578845978, 0.09052427113056183, 0.28234079480171204, 0.12163105607032776, -0.1172470673918724, -0.02887081354856491, 0.08434324711561203, -0.2172907143831253, 0.08213681727647781, -0.2043020874261856, -0.21899986267089844, 0.11302611231803894, -0.34458911418914795, 0.23900455236434937, -0.05743343383073807, 0.0849154070019722, 0.09936996549367905, 0.34551146626472473, -0.1320236325263977, -0.13236907124519348, -0.0169476680457592, -0.18018542230129242, -0.06000401824712753, -0.16868717968463898, -0.21312275528907776, 0.1034427285194397, -0.3107644021511078, -0.09203216433525085, -0.279874712228775, -0.3537582755088806, 0.26943719387054443, -0.1925492137670517, -0.24434292316436768, 0.03673025220632553, -0.06178441271185875, -0.3203432261943817, -0.3059503734111786, -0.09778004139661789, 0.097120001912117, 0.1256403774023056, 0.042797595262527466, 0.13924425840377808, 0.06799677759408951, 0.25086161494255066, -0.2571474015712738, 0.1552787572145462, 0.12588438391685486, 0.10127892345190048, -0.07941815257072449, 0.20448678731918335, 0.050478097051382065, -0.26964306831359863, 0.13718269765377045, 0.1008211299777031, -0.352464497089386, -0.01630593277513981, -0.023996900767087936, -0.0751824602484703, 0.016582440584897995, 0.01616850681602955, 0.25599396228790283, 0.18548376858234406, 0.1746518462896347, 0.09594109654426575, 0.05402682349085808, -0.018035197630524635, -0.028721382841467857, 0.10347777605056763, -0.14269861578941345, 0.32652634382247925, 0.2884743809700012, 0.0014314294094219804, -0.1561875343322754, 0.30580154061317444, -0.1477796882390976, 0.060253553092479706, -0.12585404515266418, -0.01726578362286091, -0.23368801176548004, 0.1784483939409256, -0.12249384075403214, 0.02532864362001419, -0.26764926314353943, 0.23980127274990082, -0.4248359501361847, 0.3473357856273651, -0.011285454034805298, 0.1597876101732254, -0.16780368983745575, -0.16189640760421753, -0.12901091575622559, 0.018022507429122925, -0.24974824488162994, -0.1208411231637001, 0.0879453718662262, 0.3057568371295929, 0.08299636095762253, 0.027722667902708054, 0.05909135192632675, -0.041622720658779144, -0.0316336527466774, -0.2795952260494232, -0.0018013040535151958, -0.12171152234077454, 0.07625288516283035, -0.03178330883383751, -0.32387012243270874, -0.07106458395719528, -0.1964423656463623, -0.11327281594276428, -0.14460259675979614, 0.10778430849313736, -0.35559502243995667, 0.4102860689163208], [0.09047136455774307, -0.00593261793255806, -0.1046321913599968, 0.14115402102470398, 0.0022971793077886105, 0.3045927882194519, 0.19773824512958527, -0.13429540395736694, 0.04286288097500801, 0.20578496158123016, -0.12316805869340897, -0.12663882970809937, -0.04209417104721069, -0.18099285662174225, 0.174256831407547, -0.08525703847408295, -0.2374836504459381, 0.14843842387199402, -0.013384537771344185, 0.04016635939478874, -0.4005579650402069, 0.22612451016902924, 0.05844667926430702, 0.02255290560424328, -0.02102312259376049, -0.053525716066360474, 0.06789688766002655, 0.025180695578455925, 0.1414235234260559, -0.08773909509181976, -0.3704105317592621, -0.18015600740909576, -0.013343463651835918, 0.05289530009031296, -0.06383898109197617, 0.014660872519016266, 0.13055382668972015, -0.07972203940153122, -0.1501883566379547, -0.11906459182500839, -0.0981513112783432, 0.13355304300785065, 0.22643032670021057, -0.06409472227096558, -0.15634313225746155, 0.013712318614125252, -0.2174089103937149, 0.0410805270075798, -0.05106441304087639, 0.01069545652717352, -0.0103063452988863, -0.13936397433280945, 0.12186620384454727, -0.1328137069940567, -0.08896716684103012, 0.11305269598960876, -0.04789196699857712, 0.08233176171779633, 0.09028029441833496, -0.19119085371494293, 0.24975228309631348, 0.18137778341770172, 0.008824887685477734, 0.06928497552871704, -0.06937766820192337, -0.08447478711605072, -0.06742067635059357, 0.3656378984451294, -0.07178936898708344, 0.18646396696567535, -0.043814390897750854, -0.10888449102640152, 0.2897566854953766, -0.37488362193107605, -0.20465083420276642, -0.1728389859199524, -0.10043399780988693, 0.3840548098087311, 0.30288076400756836, 0.1195216253399849, -0.1101967915892601, -0.08576484769582748, -0.0025233286432921886, -0.26012301445007324, 0.003612378379330039, 0.4300174117088318, 0.19061222672462463, 0.33005937933921814, -0.11400663107633591, 0.04905817285180092, 0.1615118384361267, -0.10452348738908768, 0.10033068060874939, -0.30835333466529846, -0.2711244523525238, 0.10466507077217102, 0.031851876527071, 0.28286483883857727, -0.29367026686668396, -0.37669721245765686, -0.11663814634084702, 0.22420041263103485, 0.18366177380084991, 0.07920292764902115, 0.10903916507959366, -0.17419736087322235, -0.027989346534013748, -0.17061416804790497, -0.0897345021367073, -0.07220803201198578, 0.03012382797896862, 0.15840797126293182, 0.2622718811035156, -0.107400082051754, 0.037680622190237045, 0.2372908890247345, -0.05364301800727844, -0.11293119937181473, -0.17517811059951782, -0.19467012584209442, 0.25406187772750854, -0.2826736867427826, 0.17686006426811218, 0.15695743262767792, -0.2132650762796402, -0.12757311761379242, 0.32313427329063416, -0.17388948798179626], [0.48756536841392517, 0.2805287837982178, -0.2152991145849228, 0.14884443581104279, 0.16245247423648834, -0.49139565229415894, 0.057548459619283676, 0.07549617439508438, -0.15440988540649414, -0.81284499168396, -0.23824594914913177, 0.3859386742115021, -0.03883645683526993, 0.03501775860786438, -0.05969693511724472, -0.15680435299873352, 0.11010123789310455, -0.2507885992527008, 0.04422568902373314, 0.1861274391412735, -0.030775412917137146, -0.264968603849411, 0.1954641491174698, 0.26127395033836365, -0.3109235167503357, -0.14520084857940674, 1.0941210985183716, -0.3975626826286316, -0.345469206571579, -0.1654522716999054, 0.13720744848251343, 0.20261675119400024, -0.21917982399463654, 0.47890084981918335, -0.4063619077205658, -0.14394614100456238, -0.1642678678035736, -0.001740319887176156, -0.054353050887584686, 0.11687170714139938, 0.025062326341867447, -0.02178291790187359, 0.24720297753810883, -0.5258703827857971, -0.05942844972014427, -0.1972833275794983, -0.24128049612045288, -0.3783584535121918, 0.19318240880966187, 0.08519940823316574, -0.19015167653560638, 0.17414769530296326, 0.15546263754367828, -0.13278701901435852, 0.05513405054807663, -0.06622561812400818, 0.1628028154373169, 0.008173729293048382, -0.5752292275428772, -0.13789109885692596, 0.19939550757408142, 0.24875491857528687, 0.47001832723617554, -0.18540573120117188, -0.1801353245973587, 0.1692328006029129, -0.32298317551612854, 0.0401604101061821, 0.25569310784339905, -0.043779484927654266, 0.280121386051178, 0.2849299907684326, 0.05066632106900215, -0.14715665578842163, 0.1550387591123581, -0.30675965547561646, -0.02496643178164959, -0.39721453189849854, 0.10540984570980072, -0.004027335438877344, -0.08565196394920349, 0.21114373207092285, 0.0981377363204956, 0.04678710550069809, 0.2165236622095108, 0.1326138973236084, 0.49507981538772583, -0.11279711127281189, -0.19814398884773254, -0.37552788853645325, -0.017350228503346443, -0.40733736753463745, 0.28109294176101685, 0.1749601662158966, -0.42188242077827454, -0.4677979350090027, 0.07069475203752518, -0.19457794725894928, -0.14244963228702545, 0.07813122868537903, -0.17044073343276978, -0.15999868512153625, 0.1639057993888855, 0.06901650130748749, -0.4797342121601105, -0.035655856132507324, -0.06621935218572617, -0.41178157925605774, -0.24099212884902954, 0.18460533022880554, 0.26888754963874817, 0.06659192591905594, 0.24765513837337494, -0.1799398809671402, -0.31902673840522766, 0.028965717181563377, -0.06330116838216782, -0.4701225757598877, -0.02167920209467411, 0.03709667921066284, 0.11055886000394821, 0.012388578616082668, -0.2487517148256302, -0.06946402043104172, -0.07013113051652908, 0.15143640339374542, 0.42715173959732056, -0.32553648948669434], [-0.0008133812807500362, 0.10982231050729752, 0.08415096253156662, 0.10097285360097885, -0.3634430468082428, -0.10980265587568283, 0.7421384453773499, -0.1514144241809845, 0.18032732605934143, 0.10311713814735413, -0.05659165233373642, 0.059006672352552414, -0.14625594019889832, 0.2974531948566437, 0.46051812171936035, 0.49886512756347656, 0.08531955629587173, 0.5279185175895691, -0.501628041267395, 0.40028735995292664, 0.31317010521888733, -0.6320462226867676, 0.7681728005409241, 0.6924992203712463, -0.3063950538635254, 0.6070566773414612, 0.23355215787887573, -0.0835675597190857, -0.346273273229599, -0.05855759605765343, 0.5825648903846741, 0.0295077096670866, -0.7316787242889404, 0.03449658676981926, -0.001520114135928452, -0.13183483481407166, 0.06812053918838501, -0.007792801130563021, -0.208134725689888, -0.4586452543735504, -0.11267715692520142, 0.12576209008693695, -0.368887722492218, -0.1167781725525856, -0.0012285024859011173, -0.2350812554359436, 0.03810391202569008, -0.22630073130130768, 0.12803545594215393, -0.32826367020606995, -0.31417447328567505, -0.1165400967001915, -0.15547126531600952, 0.003033562796190381, 0.2257729023694992, 0.4829055368900299, -0.06582507491111755, -0.004311667755246162, 0.11798050999641418, 0.14526121318340302, 0.21819265186786652, -0.357255220413208, 0.017571832984685898, 0.34229177236557007, 0.005200627259910107, -0.22571340203285217, -0.24871504306793213, 0.623627781867981, -0.5622259378433228, -0.36294177174568176, -0.06022069975733757, -0.3901868760585785, -0.23642493784427643, -0.500627875328064, 0.031052665784955025, -0.1284332573413849, 0.2990357577800751, 0.6876828074455261, 0.2030724287033081, 0.3405763804912567, -0.2308146208524704, 0.3229207694530487, -0.049027469009160995, -0.05691898614168167, 0.310400128364563, -0.053929999470710754, 0.3409186601638794, 0.3710134029388428, -0.14461173117160797, -0.08138146251440048, 0.006690282840281725, -0.36442917585372925, 0.7558023929595947, 0.5025043487548828, -0.12181086838245392, -0.36655136942863464, -0.5033867955207825, 0.6165785193443298, -0.2668367326259613, 0.3388623893260956, 0.20225927233695984, 0.4932372272014618, -0.4218936264514923, 0.09532767534255981, 0.21627096831798553, 0.04177995026111603, 0.019977280870079994, 0.07210979610681534, -0.3163631558418274, -0.10608356446027756, 0.07284819334745407, 0.23344866931438446, -0.0266251303255558, 0.4059954285621643, 0.39212843775749207, 0.26367613673210144, 0.280910462141037, 0.21414202451705933, -0.2588254511356354, -0.1945621222257614, 0.06245797127485275, -0.2733546495437622, -0.02543722465634346, -0.060966189950704575, 0.07824425399303436, 0.6725471019744873, 0.20352260768413544, -0.5071538686752319], [0.023882130160927773, -0.16165713965892792, 0.2234378308057785, 0.23376479744911194, 0.1587386131286621, 0.28116896748542786, 0.19084680080413818, -0.12931664288043976, -0.11854145675897598, 0.10662867873907089, -0.12718838453292847, 0.012943413108587265, -0.2333294153213501, 0.0460866279900074, 0.37510034441947937, 0.06366369128227234, 0.018016384914517403, -0.06352203339338303, 0.40477582812309265, -0.05116766691207886, -0.36906105279922485, 0.42156535387039185, 0.05586376041173935, 0.0014603269519284368, -0.1371838003396988, -0.018671009689569473, 0.009086329489946365, 0.23221515119075775, 0.12466755509376526, -0.04781819507479668, -0.5560322403907776, -0.1464703381061554, 0.0344209298491478, 0.2401682585477829, 0.09850827604532242, 0.05106739699840546, 0.001738639664836228, 0.09556359052658081, -0.32972168922424316, -0.2275254726409912, -0.11440534889698029, 0.03916249796748161, 0.3081062436103821, -0.150724396109581, -0.23354004323482513, 0.04047900065779686, -0.3458310067653656, 0.1082516685128212, -0.05784955993294716, 0.05191842466592789, 0.3165603280067444, -0.09613239765167236, -0.228995218873024, 0.17573243379592896, 0.050060778856277466, 0.16101935505867004, 0.153852179646492, 0.12898260354995728, 0.14587579667568207, 0.02474461868405342, 0.18986627459526062, 0.38603246212005615, -0.11017219722270966, -0.29616907238960266, -0.3266103267669678, 0.17487545311450958, -0.31063899397850037, 0.35057973861694336, 0.2564370334148407, -0.07155171036720276, -0.18824690580368042, 0.02801591157913208, 0.2880846858024597, -0.35470354557037354, -0.08771327137947083, 0.06241205334663391, 0.36579954624176025, 0.23669637739658356, 0.18544049561023712, -0.07089002430438995, -0.3071732819080353, 0.1855209767818451, 0.17930445075035095, -0.5661295652389526, 0.35367441177368164, 0.6822782754898071, 0.1563936322927475, 0.16726082563400269, 0.07565396279096603, -0.10190671682357788, 0.27751967310905457, -0.22505149245262146, 0.11574491113424301, -0.30217301845550537, -0.03579459711909294, -0.06080029904842377, -0.09819156676530838, 0.27201005816459656, -0.2446098029613495, -0.5102183222770691, -0.12153778970241547, 0.3425203561782837, 0.05259087681770325, 0.21959635615348816, 0.1514795422554016, -0.021789608523249626, 0.22076112031936646, -0.15042585134506226, -0.08682820945978165, -0.20789235830307007, -0.2645377516746521, 0.25458139181137085, 0.5176764726638794, -0.12646079063415527, 0.03249603137373924, 0.1696207970380783, 0.25737980008125305, -0.015509078279137611, -0.5846042633056641, 0.00750247947871685, 0.26197829842567444, -0.37572628259658813, 0.15353789925575256, 0.19177742302417755, -0.31224292516708374, 0.006501615978777409, 0.33833980560302734, -0.37637048959732056], [-0.18653102219104767, 0.2723071575164795, 0.018329758197069168, -0.09296616911888123, -0.06419569253921509, 0.07957258075475693, -0.25184524059295654, -0.05440867319703102, -0.20021818578243256, 0.12151908129453659, 0.14875952899456024, -0.18075723946094513, 0.05464651435613632, 0.17449940741062164, -0.009726809337735176, -0.11624563485383987, 0.10407327115535736, 0.23139342665672302, 0.029943421483039856, -0.20356526970863342, 0.16045980155467987, 0.26024818420410156, 0.2806769609451294, -0.031230909749865532, -0.03924193233251572, 0.06346894055604935, 0.026486176997423172, 0.2319372594356537, 0.41062283515930176, 0.17102423310279846, 0.15727104246616364, -0.2825847566127777, -0.36367782950401306, -0.06410785764455795, 0.22062204778194427, 0.21474885940551758, 0.2624930739402771, 0.23539452254772186, -0.09869091957807541, -0.06921426951885223, 0.08077004551887512, -0.013023185543715954, 0.005289125721901655, 0.3910282254219055, -0.167003333568573, 0.20014819502830505, 0.14452093839645386, 0.3546139895915985, -0.11608252674341202, 0.10124146938323975, -0.31997525691986084, 0.04872601851820946, 0.3962664306163788, -0.048004914075136185, -0.033809956163167953, 0.03511983901262283, -0.1862717568874359, 0.21455822885036469, 0.2385215014219284, -0.14534513652324677, 0.028590932488441467, 0.013554406352341175, -0.46330392360687256, 0.12797613441944122, 0.029691895470023155, -0.19946542382240295, 0.08816128969192505, -0.13178499042987823, 0.10491863638162613, 0.2740417420864105, 0.13696856796741486, -0.19693994522094727, 0.1053941398859024, -0.055156923830509186, -0.3179071545600891, 0.09499093145132065, 0.08407026529312134, 0.03240964561700821, 0.10300426930189133, -0.16952814161777496, -0.11224997043609619, -0.02414085529744625, -0.05227762833237648, -0.03442097082734108, 0.10282745957374573, -0.19543345272541046, 0.07797596603631973, -0.2241639941930771, 0.3504340946674347, 0.041119687259197235, 0.565260112285614, -0.007592923939228058, -0.0034668452572077513, -0.020544303581118584, 0.08451775461435318, 0.17668092250823975, -0.03170403838157654, -0.038362327963113785, -0.008530834689736366, -0.153451606631279, 0.5214980840682983, 0.012290392071008682, -0.14620137214660645, 0.34944289922714233, 0.10816717892885208, -0.06361468136310577, 0.292683869600296, -0.005211930256336927, 0.049536969512701035, 0.11039634048938751, -0.14157962799072266, -0.025935808196663857, -0.05163980647921562, -0.0009432083461433649, -0.047665804624557495, 0.08774252980947495, 0.20827095210552216, 0.3282059133052826, -0.3499538004398346, 0.3000907003879547, 0.06364426016807556, 0.1490773856639862, -0.24224717915058136, 0.2312217652797699, 0.24864624440670013, -0.13701112568378448, 0.04475763440132141, -0.19690832495689392], [-0.15053677558898926, 0.18901395797729492, 0.43154242634773254, -0.008371546864509583, 0.18185442686080933, 0.05194540321826935, -0.49900805950164795, -0.23207665979862213, 0.21456120908260345, -0.18986409902572632, 0.02321375161409378, 0.03721897676587105, 0.12118767201900482, -0.04428790509700775, -0.1622019112110138, 0.047652747482061386, 0.17172008752822876, -0.3550436198711395, -0.1272348314523697, 0.05300591140985489, -0.04937157779932022, 0.15561704337596893, 0.008147917687892914, -0.13807004690170288, 0.21592792868614197, -0.13936863839626312, 0.2164323776960373, -0.08743365108966827, -0.16825352609157562, 0.1392405927181244, -0.2868550717830658, -0.24160858988761902, 0.2923581302165985, 0.024802930653095245, -0.22499927878379822, 0.07349628210067749, 0.3030117452144623, -0.14867594838142395, 0.003063083626329899, 0.1842569261789322, 0.21051162481307983, -0.5792647004127502, -0.4009324610233307, -0.15056341886520386, 0.0050439974293112755, 0.5310700535774231, 0.07032430917024612, -0.10551130771636963, 0.2288990616798401, -0.17173892259597778, -0.2848545014858246, -0.17853350937366486, -0.18537497520446777, -0.18120765686035156, -0.11966370791196823, 0.0255793035030365, 0.12284132838249207, 0.10289794206619263, -0.4904037415981293, 0.14671078324317932, -0.09338511526584625, -0.2094319462776184, -0.09750140458345413, -0.010396437719464302, 0.6350734829902649, -0.05226016789674759, 0.15424244105815887, 0.2781195342540741, -0.3590794801712036, 0.17740243673324585, 0.18358765542507172, 0.03980284184217453, 0.1940704584121704, -0.16081032156944275, -0.1671338975429535, -0.20533838868141174, -0.16352951526641846, 0.04921193793416023, 0.007496606558561325, -0.20829634368419647, 0.4077889025211334, 0.12595213949680328, 0.37678447365760803, 0.040587034076452255, 0.02178053930401802, 0.2981871962547302, -0.09476784616708755, 0.1500365287065506, 0.3454835116863251, 0.46208399534225464, -0.10002574324607849, 0.3048805594444275, -0.3419426381587982, -0.245810404419899, 0.2594316005706787, -0.06494490802288055, 0.05016693100333214, -0.3307131826877594, 0.48065096139907837, -0.11165453493595123, -0.18409289419651031, 0.05770516023039818, -0.8326946496963501, 0.13210763037204742, 0.43879708647727966, -0.3991718590259552, 0.18995290994644165, 0.11105798184871674, -0.4394266605377197, 0.009009166620671749, -0.2652810215950012, 0.08016494661569595, -0.6231475472450256, -0.698232114315033, 0.07612281292676926, 0.23149164021015167, 0.04991520568728447, 0.0408034585416317, 0.14729464054107666, -0.015272884629666805, -0.7806711196899414, -0.05385367572307587, 0.2374977469444275, -0.0030108520295470953, 0.2785058617591858, -0.0419858880341053, -0.14004911482334137, -0.15404823422431946], [-0.05859184265136719, 0.1641448587179184, -0.1398133486509323, 0.02485104277729988, -0.12777043879032135, 0.0252460278570652, -0.23283754289150238, -0.11735976487398148, 0.10190874338150024, -0.01983438991010189, 0.2714693546295166, -0.26040616631507874, 0.0727776288986206, 0.07090699672698975, -0.348850816488266, -0.11575789004564285, -0.24074392020702362, -0.07043273001909256, -0.3411620259284973, 0.11856716871261597, -0.1610722690820694, -0.077149398624897, -0.12328547239303589, -0.3195355236530304, 0.18813377618789673, -0.062149059027433395, 0.08630739897489548, 0.5055478811264038, 0.2483971267938614, 0.003576790215447545, -0.206660658121109, 0.2509334087371826, -0.17837947607040405, 0.1630956083536148, -0.04280972480773926, 0.025355974212288857, -0.10623591393232346, -0.08663120120763779, 0.1275402158498764, 0.09907359629869461, 0.021592766046524048, -0.15884791314601898, 0.0012166944798082113, -0.14501549303531647, 0.06019449979066849, 0.09227196127176285, -0.31780746579170227, -0.13613151013851166, 0.19143526256084442, -0.15058353543281555, 0.1275266408920288, -0.05195052549242973, 0.11062772572040558, -0.17206361889839172, 0.0144726587459445, -0.11566054821014404, 0.09800764173269272, 0.5892224907875061, 0.16501007974147797, -0.100316621363163, 0.23333536088466644, -0.14230693876743317, 0.04283441603183746, 0.09306193143129349, -0.21127744019031525, 0.20837153494358063, -0.38177019357681274, -0.07215132564306259, -0.034914176911115646, 0.06783518940210342, -0.29075536131858826, -0.11142335087060928, -0.23584145307540894, -0.184322789311409, -0.25509876012802124, -0.1160755529999733, 0.04132461920380592, 0.06996776908636093, -0.152984157204628, -0.08806327730417252, -0.09121554344892502, -0.35854002833366394, -0.0028915663715451956, -0.1281977742910385, -0.017789477482438087, 0.06317239254713058, -0.12129277735948563, 0.13264566659927368, -0.15341192483901978, -0.017038172110915184, -0.01902148500084877, 0.23439739644527435, -0.16418716311454773, -0.031230268999934196, -0.14411741495132446, -0.11661113053560257, -0.10074964165687561, -0.19997593760490417, 0.043921343982219696, 0.010976926423609257, 0.05898148566484451, -0.26678478717803955, 0.09581907838582993, -0.11626771092414856, 0.0858875960111618, -0.26545649766921997, -0.2733384668827057, -0.14711996912956238, 0.14689281582832336, -0.28830933570861816, -0.07776062190532684, -0.2627730667591095, -0.12553581595420837, 0.2018813192844391, 0.08971476554870605, -0.34288349747657776, 0.07590669393539429, -0.20517699420452118, 0.2824691832065582, 0.02643788792192936, -0.17867472767829895, -0.1989717334508896, -0.19496242702007294, -0.11249706149101257, -0.14442874491214752, -0.010411795228719711, -0.22321905195713043, 0.1488155722618103], [-0.12303823232650757, -0.0824974924325943, 0.22528447210788727, -0.31238532066345215, -0.027163762599229813, -0.1570914387702942, -0.29500338435173035, 0.011826575733721256, 0.09977949410676956, 0.24114646017551422, -0.17826494574546814, -0.011618288233876228, 0.17247112095355988, -0.09094254672527313, -0.0033215631265193224, -0.08834435045719147, -0.15982194244861603, -0.059256959706544876, 0.15601786971092224, -0.20259366929531097, 0.4127499759197235, -0.10837677121162415, -0.1691257655620575, 0.042007237672805786, -0.03239598125219345, -0.1647818237543106, -0.3674505054950714, -0.10077281296253204, 0.01340558473020792, 0.2398342341184616, -0.22372156381607056, 0.027048859745264053, 0.03274726867675781, -0.2688477337360382, 0.20935650169849396, -0.10098326206207275, 0.025076180696487427, -0.23833435773849487, -0.37090030312538147, -0.34416982531547546, 0.16057981550693512, 0.10556990653276443, -0.05745776370167732, -0.05193794518709183, -0.014289257116615772, -0.21868714690208435, 0.16534864902496338, -0.10037963837385178, -0.15651734173297882, -0.07280959188938141, -0.10806182026863098, 0.12659989297389984, -0.46667394042015076, 0.16979379951953888, -0.17214660346508026, 0.18952137231826782, -0.25074589252471924, -0.0867823138833046, -0.022610770538449287, 0.16729950904846191, -0.2299214005470276, 0.2178555428981781, -0.10214199870824814, 0.06045443192124367, -0.0026499677915126085, -0.09290839731693268, 0.20445215702056885, -0.005289723630994558, 0.05978270620107651, 0.028903046622872353, -0.11751967668533325, -0.06365548074245453, -0.058444589376449585, 0.177827388048172, -0.12585800886154175, 0.3500198423862457, -0.007954305037856102, -0.016904810443520546, -0.052434708923101425, 0.24340732395648956, -0.20572836697101593, -0.06273316591978073, -0.059717122465372086, 0.05129840970039368, 0.04569515213370323, 0.07501737773418427, -0.30287569761276245, -0.1179228127002716, 0.25840431451797485, -0.12892389297485352, -0.12270180135965347, 0.06211542710661888, -0.09024224430322647, 0.141869455575943, -0.07892830669879913, -0.02840404398739338, 0.16135616600513458, -0.21707023680210114, 0.09188298881053925, 0.04223056137561798, 0.13427120447158813, -0.0760817676782608, -0.35420170426368713, -0.23121225833892822, -0.1694486141204834, 0.14176945388317108, -0.11713054031133652, -0.1077386811375618, -0.11416108161211014, 0.15484954416751862, 0.07856114208698273, -0.2306169718503952, -0.2794007956981659, -0.06508037447929382, -0.023791344836354256, -0.09737053513526917, 0.03946729376912117, 0.2659264802932739, -0.09319306164979935, -0.29236531257629395, -0.06599928438663483, -0.08036904782056808, 0.07857391238212585, -0.01756967604160309, -0.1177910715341568, -0.32665446400642395, -0.19597402215003967, 0.18811805546283722], [0.10234351456165314, -0.4929026961326599, 0.03499801829457283, -0.41029050946235657, -0.17765741050243378, 0.002338455757126212, 0.02523251250386238, 0.03407514467835426, 0.014268811792135239, 0.07641129940748215, -0.6269004940986633, -0.038992740213871, -0.1813778579235077, -0.12426825612783432, 0.09539061784744263, 0.1912873536348343, 0.061053190380334854, -0.1768125593662262, -0.346921443939209, 0.01962566189467907, 0.20108157396316528, -0.2719472050666809, -0.14366109669208527, -0.09568913280963898, 0.23408819735050201, -0.35878148674964905, -0.1731782853603363, 0.07280407100915909, 0.22252516448497772, 0.08761392533779144, 0.11785522103309631, 0.11357864737510681, -0.18769510090351105, -0.20764891803264618, 0.30357271432876587, 0.011409812606871128, -0.013204164803028107, 0.2521600127220154, 0.20496699213981628, 0.18466798961162567, 0.125507190823555, 0.17204295098781586, 0.07674521952867508, 0.07775610685348511, -0.4178082346916199, -0.07019522786140442, 0.30329835414886475, -0.27479463815689087, -0.14928801357746124, 0.35112401843070984, 0.0014388102572411299, 0.291390061378479, -0.5644762516021729, 0.18439529836177826, 0.25569984316825867, 0.2603875696659088, -0.7624287605285645, 0.06922764331102371, 0.26245439052581787, 0.001249353983439505, 0.2052426040172577, 0.11574022471904755, -0.15733914077281952, -0.00161093904171139, -0.30540579557418823, -0.5681656002998352, 0.01661900244653225, -0.12149593234062195, 0.16177459061145782, -0.1828870326280594, 0.06680930405855179, -0.051292069256305695, 0.08792250603437424, 0.42117181420326233, -0.007846164517104626, 0.2615005373954773, 0.029332254081964493, -0.04389170557260513, 0.148961141705513, 0.006276874803006649, 0.15169571340084076, 0.20108409225940704, -0.7523788213729858, -0.11585165560245514, 0.10559448599815369, -0.23721396923065186, -0.32439854741096497, -0.06955235451459885, -0.16404365003108978, 0.04664321616292, -0.0699169710278511, 0.14004749059677124, -0.045272886753082275, -0.27084270119667053, 0.014901685528457165, -0.06467194110155106, 0.24866913259029388, 0.16412724554538727, 0.036290816962718964, -0.18782676756381989, 0.058816634118556976, 0.3909101188182831, 0.21542441844940186, -0.26456934213638306, -0.1294630467891693, 0.14012876152992249, 0.17318573594093323, 0.1466042846441269, -0.18897221982479095, -0.042286112904548645, -0.030424434691667557, -0.2070864737033844, -0.03038586676120758, 0.19697405397891998, -0.2064703106880188, -0.5871732234954834, 0.0792180672287941, 0.13223598897457123, 0.21444858610630035, 0.19304856657981873, 0.006219705566763878, 0.14292410016059875, -0.2504144310951233, -0.27434542775154114, -0.010596745647490025, 0.1682693064212799, -0.17561832070350647, 0.04997897148132324], [-0.013573518954217434, 0.2576337456703186, -0.13770358264446259, -0.05432574078440666, 0.1720258891582489, 0.06897608935832977, -0.2253844290971756, -0.19217315316200256, 0.13870956003665924, -0.10191000998020172, 0.07781265676021576, -0.006660365499556065, 0.17396505177021027, 0.0767425075173378, 0.14171575009822845, -0.06334783136844635, 0.2102993279695511, -0.023989146575331688, -0.3986223340034485, 0.12262019515037537, -0.08001700788736343, -0.04135940223932266, 0.11800364404916763, 0.07010245323181152, 0.06489553302526474, 0.1663096696138382, 0.16705170273780823, 0.04082983732223511, 0.2531372904777527, -0.03592102229595184, 0.3840486407279968, 0.1377730667591095, 0.029589522629976273, -0.11691949516534805, -0.09794037789106369, -0.05217745900154114, 0.2192445695400238, 0.14182814955711365, 0.17024147510528564, -0.06763901561498642, 0.12133906036615372, -0.2309313267469406, -0.1213872954249382, 0.2969541549682617, -0.05452914163470268, 0.4759243130683899, 0.07018262892961502, -0.255534291267395, -0.037928495556116104, 0.03293757885694504, -0.11619649827480316, -0.02829086408019066, -0.0287096556276083, 0.010197487659752369, -0.09016045928001404, -0.20449897646903992, -0.0009153246064670384, 0.18791882693767548, 0.026816051453351974, 0.25420820713043213, -0.023382272571325302, -0.14205358922481537, 0.19874809682369232, 0.0637093037366867, 0.17057566344738007, -0.07755997776985168, 0.18843983113765717, -0.008907190524041653, -0.22533856332302094, -0.019166642799973488, -0.1457090675830841, -0.2605622410774231, 0.10734477639198303, 0.18261918425559998, -0.04133889451622963, -0.22501039505004883, 0.12891925871372223, 0.05356576666235924, 0.12898071110248566, -0.17987151443958282, 0.2940029501914978, 0.16573958098888397, -0.1676124781370163, 0.15404294431209564, 0.050648681819438934, 0.17691496014595032, 0.02344837225973606, -0.10841728001832962, -0.2695370316505432, 0.3090802729129791, -0.1131705641746521, 0.019186360761523247, 0.13952027261257172, -0.08340499550104141, 0.4275824725627899, 0.2809300720691681, 0.08287141472101212, -0.25222721695899963, 0.07931032031774521, 0.1337043046951294, 0.15741170942783356, -0.08318870514631271, -0.09178777039051056, -0.14456547796726227, 0.28461629152297974, -0.25759997963905334, 0.21774917840957642, -0.06523911654949188, -0.06573360413312912, 0.1000702977180481, -0.03162793815135956, 0.0633711963891983, -0.05525907874107361, 0.06168915703892708, 0.1431502252817154, -0.4033512771129608, 0.24797433614730835, 0.11819911748170853, 0.2576495110988617, 0.06317176669836044, -0.09094607830047607, 0.14947229623794556, -0.11664599925279617, 0.08610554784536362, 0.3933524191379547, 0.16600920259952545, -0.11391695588827133, 0.1470497101545334], [0.18423718214035034, -0.12540677189826965, 0.14456410706043243, -0.056000854820013046, 0.0052528101950883865, 0.1767292469739914, -0.06417146325111389, 0.054240964353084564, 0.23223918676376343, 0.419800728559494, 0.0480634942650795, -0.2599618434906006, 0.178626149892807, 0.17854104936122894, 0.06710075587034225, -0.25242742896080017, -0.13986799120903015, -0.17141765356063843, -0.12144425511360168, -0.03290814906358719, 0.5067850947380066, -0.16918353736400604, -0.24139584600925446, -0.18386662006378174, 0.08121310919523239, 0.0900426059961319, -0.25848379731178284, -0.06829993426799774, 0.033765435218811035, 0.09021751582622528, 0.10320978611707687, -0.11713922768831253, 0.1036771684885025, -0.14027324318885803, 0.22628355026245117, 0.3011683523654938, -0.051601309329271317, -0.14629660546779633, -0.3231384754180908, -0.16183428466320038, -0.07474350929260254, -0.09120320528745651, -0.21619541943073273, 0.12205550819635391, -0.010065902024507523, 0.07322432100772858, 0.08450600504875183, 0.022033678367733955, -0.23633162677288055, -0.16210468113422394, 0.22267553210258484, 0.1564512848854065, -0.26884666085243225, 0.3677840530872345, 0.052333053201436996, 0.012933246791362762, -0.10316670686006546, -0.20680029690265656, -0.08493402600288391, 0.024156540632247925, 0.06190227344632149, 0.2791839838027954, 0.12338948994874954, 0.16674448549747467, 0.3066094219684601, -0.13598039746284485, -0.00015907606575638056, 0.12622769176959991, -0.11014875024557114, -0.2867448925971985, 0.0350724458694458, 0.1626221090555191, -0.2843032777309418, 0.26507970690727234, 0.3413829207420349, 0.16912589967250824, -0.012010335922241211, 0.0772787407040596, -0.052972644567489624, 0.2849251329898834, 0.08976653218269348, 0.01559961587190628, 0.26765429973602295, 0.1933290958404541, 0.06846296787261963, -0.06330213695764542, -0.28979313373565674, 0.059032589197158813, 0.2541114091873169, 0.08938514441251755, -0.1414649784564972, 0.2885165214538574, -0.17975932359695435, -0.02151002734899521, 0.047259289771318436, 0.10256317257881165, 0.10029955208301544, 0.013564939610660076, -0.22926115989685059, 0.1730947196483612, -0.1519586145877838, -0.04841111600399017, -0.010820340365171432, -0.14552660286426544, 0.18791258335113525, 0.24432174861431122, -0.10594719648361206, 0.2802755534648895, -0.06639020889997482, 0.39623168110847473, 0.0623953640460968, -0.04983366280794144, -0.194865882396698, 0.05137554556131363, 0.19657886028289795, 0.038527585566043854, -0.0590786337852478, 0.07938972860574722, 0.07096823304891586, -0.3035433888435364, -0.032133281230926514, -0.16557300090789795, 0.14189967513084412, -0.027036268264055252, 0.1617296189069748, -0.2153024524450302, -0.10200545191764832, 0.2817143499851227], [0.16645441949367523, -0.17671450972557068, -0.2537989020347595, 0.012697035446763039, -0.16590504348278046, -0.34936895966529846, 0.02647455222904682, 0.0880388393998146, -0.2851826250553131, 0.14712141454219818, -0.3815121352672577, 0.022768180817365646, -0.10965272039175034, -0.38479897379875183, -0.08510471135377884, 0.07170932739973068, -0.0022785370238125324, -0.027272293344140053, -0.0847071036696434, -0.1754409521818161, 0.18952570855617523, -0.2608656883239746, -0.08773006498813629, 0.1878822296857834, 0.21934732794761658, 0.22253936529159546, -0.008486418053507805, -0.03520737960934639, 0.12985028326511383, -0.04922553524374962, -0.19902780652046204, 0.25722819566726685, -0.23239660263061523, -0.022458937019109726, 0.293064147233963, -0.35852599143981934, 0.016942285001277924, 0.03193033114075661, 0.20836377143859863, 0.11391380429267883, 0.048827338963747025, 0.37192827463150024, 0.06072209030389786, 0.23279252648353577, -0.39539432525634766, 0.008408965542912483, 0.0416920930147171, -0.02321549691259861, -0.24703536927700043, 0.4509340822696686, 0.17803721129894257, 0.27908653020858765, 0.0481254868209362, 0.1186799556016922, -0.05215644836425781, 0.1975669413805008, -0.44984689354896545, 0.36079055070877075, 0.2307431399822235, 0.017818549647927284, 0.123131662607193, 0.25598618388175964, 0.24011199176311493, -0.3228031396865845, -0.02412816323339939, -0.23477712273597717, -0.03394417464733124, -0.35643085837364197, 0.006963757798075676, -0.010617058724164963, -0.015253500081598759, 0.009188154712319374, -0.05578095093369484, 0.18660752475261688, 0.0966387614607811, -0.04924416542053223, -0.124382883310318, -0.11101122200489044, -0.1826619654893875, -0.05311679467558861, -0.1454026848077774, -0.2179526537656784, -0.482014924287796, 0.1613808572292328, 0.10723032057285309, -0.342404842376709, -0.03568584471940994, -0.039372894912958145, -0.1329181045293808, -0.055030059069395065, 0.3688616454601288, -0.014850934036076069, 0.035897232592105865, 0.07025442272424698, 0.08879011124372482, -0.03235761076211929, 0.0012419014237821102, -0.04755508527159691, 0.0992436334490776, 0.14708063006401062, -0.056475743651390076, -0.022894544526934624, 0.09102750569581985, -0.09013421833515167, -0.3169298470020294, 0.2602972984313965, -0.0738057941198349, 0.0027013972867280245, 0.012209266424179077, 0.10730237513780594, 0.054496653378009796, 0.01709975115954876, 0.29252782464027405, 0.3831808865070343, -0.09020815789699554, 0.028344040736556053, 0.38950106501579285, 0.1575538069009781, -0.0021646074019372463, 0.05194048956036568, 0.009414426982402802, 0.045090340077877045, -0.1847451627254486, 0.1553054004907608, -0.02297980710864067, -0.10836632549762726, 0.012276050634682178, -0.014472289010882378], [-0.008180709555745125, 0.07478751242160797, 0.02202824503183365, -0.35774925351142883, 0.299685537815094, -0.0923980325460434, -0.008324223570525646, 0.12293341755867004, -0.029036806896328926, -0.036339350044727325, 0.03780289366841316, -0.09421756118535995, -0.04747171327471733, -0.06939682364463806, 0.02118290215730667, 0.08774921298027039, 0.29131177067756653, 0.1991892158985138, -0.04908287525177002, 0.0018478685524314642, -0.019322434440255165, 0.20193466544151306, 0.2903769016265869, 0.14424118399620056, -0.27505069971084595, 0.13131865859031677, 0.01912040077149868, -0.3902948796749115, -0.08470962941646576, -0.36253389716148376, 0.3189026117324829, -0.059477828443050385, -0.14743733406066895, 0.026237694546580315, 0.1712779700756073, 0.308826208114624, 0.13517560064792633, 0.25310707092285156, 0.24476571381092072, -0.08599169552326202, 0.09896183013916016, -0.3486887812614441, -0.33163347840309143, 0.22556661069393158, -0.14818169176578522, 0.5448046326637268, -0.0057297381572425365, -0.22901099920272827, -0.03866671770811081, 0.033297713845968246, -0.07672885805368423, 0.2605266571044922, -0.035006579011678696, -0.022670039907097816, 0.14912237226963043, -0.18048004806041718, -0.013969141989946365, -0.2287498265504837, -0.0853222981095314, 0.1852363795042038, -0.17509402334690094, -0.3064498007297516, -0.00193745584692806, -0.0011399306822568178, 0.17034202814102173, -0.1170695424079895, 0.3015565276145935, -0.03254668414592743, -0.13949091732501984, 0.10157568007707596, 0.24161630868911743, -0.16529415547847748, 0.1533752679824829, 0.1558166891336441, 0.041684262454509735, -0.13677528500556946, -0.06428477168083191, 0.24952326714992523, 0.10022182762622833, -0.055188585072755814, 0.3428073823451996, 0.11210932582616806, -0.2707069218158722, -0.008158241398632526, -0.11145465075969696, 0.04407892003655434, -0.04940832778811455, 0.025881676003336906, 0.004824530333280563, 0.2882600426673889, -0.27220335602760315, 0.15189091861248016, 0.33737295866012573, -0.18250417709350586, 0.5399997234344482, 0.24703530967235565, 0.1068078950047493, -0.14307555556297302, 0.3428782522678375, 0.0856107845902443, 0.05629412829875946, 0.010031548328697681, -0.04942043870687485, -0.1100904569029808, 0.08736776560544968, -0.05020979419350624, 0.3729438781738281, 0.10674998164176941, -0.022463275119662285, 0.20951057970523834, 0.010163992643356323, 0.12858498096466064, 0.0832759439945221, -0.0942896232008934, 0.1472465693950653, -0.1765407770872116, -0.07302748411893845, 0.1349121630191803, 0.20714935660362244, -0.011180187575519085, -0.26954710483551025, 0.23527047038078308, 0.04316096380352974, 0.23737619817256927, 0.2632140517234802, 0.15823481976985931, 0.16100840270519257, -0.03533001244068146], [0.07042606920003891, -0.17738410830497742, 0.24971330165863037, -0.0892152339220047, -0.16420280933380127, 0.19300627708435059, 0.001808563363738358, -0.03321119770407677, 0.15716180205345154, 0.3212275505065918, -0.047250211238861084, -0.35756736993789673, 0.013431036844849586, 0.23457884788513184, 0.05713103339076042, -0.40069010853767395, -0.051559928804636, -0.03888719156384468, -0.006916514132171869, 0.04751691222190857, 0.2393108755350113, 0.12989458441734314, -0.06200345605611801, -0.10005292296409607, 0.09567636996507645, 0.11387330293655396, -0.4102950990200043, -0.18299613893032074, 0.06527691334486008, 0.02758580632507801, 0.0213620662689209, -0.09607148170471191, 0.05832742527127266, -0.4697743058204651, 0.3165692687034607, 0.2640785872936249, -0.056516438722610474, -0.5244394540786743, -0.14524446427822113, 0.00020413906895555556, -0.27684617042541504, 0.07305792719125748, -0.15396712720394135, 0.13731908798217773, 0.14436420798301697, -0.045804712921381, -0.29298433661460876, 0.4599217474460602, 0.044462960213422775, -0.12442675232887268, 0.012535830028355122, -0.060711052268743515, -0.4994433522224426, 0.38745811581611633, 0.008067004382610321, 0.0007835343130864203, -0.115135058760643, -0.04548831284046173, -0.042765550315380096, 0.278061181306839, 0.05154165253043175, 0.26717278361320496, -0.20561550557613373, -0.02534407563507557, 0.15693455934524536, -0.03443345054984093, 0.22343993186950684, -0.020352758467197418, -0.27770426869392395, -0.3002638518810272, 0.21744637191295624, 0.20807890594005585, -0.242598295211792, 0.2593034505844116, 0.27443140745162964, -0.01334443874657154, 0.018171530216932297, 0.1611088663339615, -0.011336912401020527, 0.08405674993991852, 0.08994976431131363, -0.1515377014875412, 0.12205247581005096, 0.19397060573101044, -0.08362845331430435, -0.3071806728839874, -0.32714489102363586, -0.11407803744077682, 0.09067028760910034, -0.05030056834220886, -0.30260226130485535, 0.1936826854944229, -0.020644474774599075, 0.2906498312950134, 0.258746862411499, -0.0038061286322772503, -0.051638729870319366, 0.2614156901836395, -0.26431238651275635, 0.29060569405555725, -0.2679227590560913, 0.14135324954986572, -0.1527625471353531, -0.08137769997119904, 0.25530797243118286, 0.04170794039964676, -0.2695709764957428, 0.14614784717559814, 0.2751401960849762, 0.46841663122177124, 0.00510395597666502, -0.08143793046474457, 0.062123555690050125, 0.13290263712406158, 0.04968707635998726, -0.08253016322851181, -0.041413839906454086, 0.131644144654274, 0.07751739025115967, -0.483086496591568, 0.1624344289302826, -0.3848816156387329, 0.1319117397069931, -0.2075958102941513, -0.1191820576786995, -0.035635415464639664, -0.4156564772129059, 0.2947079837322235], [0.16163592040538788, 0.006029339507222176, -0.4662220776081085, 0.03148047253489494, -0.19393295049667358, -0.31218665838241577, 0.20118537545204163, 0.04598960280418396, -0.5455692410469055, 0.3383314609527588, -0.11715906113386154, 0.27614280581474304, -0.04939856380224228, -0.32970571517944336, 0.21374934911727905, -0.22917626798152924, 0.1543426811695099, 0.060940518975257874, 0.32268431782722473, -0.396445631980896, -0.005497284233570099, 0.018406929448246956, -0.3166554272174835, -0.15953625738620758, -0.1437898427248001, 0.4204305112361908, 0.19672107696533203, 0.2590453624725342, -0.01142118126153946, 0.1888747215270996, -0.1855119913816452, 0.3723231554031372, -0.014659561216831207, 0.11407583951950073, 0.17595210671424866, -0.521679699420929, 0.007744398433715105, -0.01042036060243845, -0.2866886854171753, 0.44430601596832275, 0.1288396120071411, 0.46799251437187195, -0.17084330320358276, 0.011870788410305977, 0.0535585880279541, -0.2271822690963745, -0.07990066707134247, 0.11869849264621735, -0.4100770056247711, 0.1598847657442093, 0.0326557420194149, 0.0713442862033844, 0.04356987401843071, 0.13655053079128265, -0.25298577547073364, -0.047274112701416016, 0.017874255776405334, 0.34063827991485596, 0.4775236248970032, 0.028716040775179863, 0.5462018251419067, 0.2698468863964081, 0.3314962089061737, -0.3827182948589325, 0.05667306110262871, -0.08816772699356079, -0.03199723735451698, -0.23550006747245789, 0.27309679985046387, -0.04234379529953003, 0.05337463691830635, 0.19182661175727844, 0.03850366175174713, 0.05511258915066719, 0.11938438564538956, 0.019191181287169456, -0.19932805001735687, -0.33481913805007935, -0.19325949251651764, -0.1542508453130722, -0.27808958292007446, -0.5423592329025269, -0.10257849097251892, 0.4242500960826874, 0.17627443373203278, -0.2510717809200287, 0.2506279945373535, 0.10749788582324982, 0.03256552293896675, 0.3599872589111328, 0.4266780912876129, -0.053607720881700516, -0.19401447474956512, 0.5543816089630127, -0.18272385001182556, -0.485538512468338, 0.12616856396198273, 0.1997930109500885, -0.3772509694099426, 0.38764920830726624, 0.3193398714065552, -0.4340670108795166, 0.1782386749982834, -0.03643449768424034, -0.5444684624671936, 0.22167040407657623, -0.3355482816696167, -0.27376309037208557, 0.12091375142335892, -0.0996917262673378, -0.34303998947143555, -0.23678575456142426, 0.3249090015888214, 0.4359605610370636, -0.16031388938426971, 0.14597024023532867, 0.4631398320198059, 0.03237736225128174, -0.39063870906829834, 0.04866914078593254, 0.1672259122133255, 0.1175212562084198, -0.23817457258701324, 0.22076791524887085, 0.0006593361613340676, -0.43587949872016907, -0.46030038595199585, 0.10674676299095154], [0.1914462447166443, 0.13526998460292816, 0.20428001880645752, -0.2958887219429016, 0.13546516001224518, -0.1168435588479042, -0.052613306790590286, -0.026130544021725655, -0.1294746696949005, -0.23842820525169373, -0.1271977573633194, 0.07311645150184631, 0.1700170785188675, -0.25893115997314453, -0.05701623111963272, 0.2934851348400116, 0.03672950714826584, 0.16633950173854828, 0.067062608897686, -0.24188147485256195, 0.36138296127319336, 0.050342679023742676, 0.26807135343551636, -0.035769272595644, -0.1532309651374817, 0.34445735812187195, 0.14289669692516327, -0.23995837569236755, -0.15062038600444794, -0.3189246952533722, 0.13473767042160034, -0.2333376109600067, 0.1261352002620697, -0.10930829495191574, -0.042932379990816116, 0.1665392816066742, 0.36507219076156616, 0.1623164415359497, 0.32173559069633484, 0.10021208226680756, 0.3862137794494629, -0.3424176275730133, -0.052043091505765915, 0.09429243206977844, -0.12989594042301178, 0.2907485365867615, 0.08828267455101013, -0.18338382244110107, 0.10996591299772263, -0.0866914764046669, -0.3145236372947693, 0.042488642036914825, 0.11036337167024612, 0.0010813738917931914, 0.09684295207262039, 0.09017947316169739, -0.17922857403755188, -0.338287889957428, -0.2797068953514099, 0.07534776628017426, -0.3962109386920929, -0.2637803256511688, 0.3065482974052429, 0.06600655615329742, 0.24235394597053528, -0.025717109441757202, 0.16084833443164825, 0.05282265320420265, 0.09610731899738312, 0.04884522408246994, 0.3731836974620819, -0.0628635436296463, 0.3142934739589691, 0.06237068772315979, 0.19749867916107178, 0.05256592109799385, -0.29158657789230347, 0.13693192601203918, 0.23595422506332397, -0.16399027407169342, 0.4716658890247345, 0.24790553748607635, -0.09647182375192642, -0.14328069984912872, -0.4881041944026947, -0.03753865510225296, 0.16139653325080872, -0.10193678736686707, -0.28914764523506165, 0.08647952973842621, -0.1699506789445877, 0.2978147864341736, 0.16611479222774506, 0.022450171411037445, 0.41754186153411865, 0.32709434628486633, 0.29629287123680115, -0.45716017484664917, 0.05387505888938904, -0.1035708412528038, 0.22849082946777344, 0.1278940737247467, -0.3227141797542572, 0.08186444640159607, 0.015250084921717644, -0.037889931350946426, 0.26819902658462524, -0.14178591966629028, -0.060171108692884445, 0.07738655805587769, 0.20176173746585846, -0.15846996009349823, 0.1258307546377182, -0.2792568802833557, 0.031110340729355812, -0.04589717462658882, -0.01755278743803501, 0.5203813314437866, -0.08067925274372101, -0.03444511443376541, -0.33030271530151367, 0.2998329997062683, 0.04353644326329231, 0.02575807087123394, 0.39459964632987976, 0.038322024047374725, -0.11891275644302368, -0.06690381467342377], [0.003786569694057107, 0.29192590713500977, 0.14102233946323395, 0.11964506655931473, 0.048800207674503326, -0.1230405792593956, -0.13022369146347046, -0.01739007607102394, -0.11420729011297226, -0.04636888578534126, 0.017642783001065254, 0.19470620155334473, 0.15934960544109344, 0.02560250833630562, -0.2542128562927246, -0.010949649848043919, 0.23823048174381256, 0.2847929298877716, -0.005277255084365606, -0.12326936423778534, 0.05047203227877617, 0.033378373831510544, 0.24033792316913605, -0.1263812631368637, -0.21495699882507324, 0.12401723116636276, -0.041165273636579514, 0.001600631163455546, -0.01228786539286375, -0.0992051437497139, -0.05628933012485504, -0.2801136374473572, -0.4340936541557312, -0.1691427081823349, -0.08920897543430328, -0.0019763882737606764, 0.08369474858045578, -0.0039030788466334343, -0.16473300755023956, -0.11960194259881973, 0.12593704462051392, 0.06982170045375824, -0.1350499838590622, 0.05376163870096207, -0.09801528602838516, -0.14507833123207092, 0.16958191990852356, 0.02056940831243992, -0.26571744680404663, -0.09162558615207672, -0.3001551032066345, 0.005245298612862825, 0.2334369271993637, -0.4839860498905182, -0.09668242931365967, -0.1609044075012207, -0.07648346573114395, 0.19340376555919647, 0.20553691685199738, -0.06299290806055069, -0.016726432368159294, -0.16821745038032532, -0.17339776456356049, -0.06677553802728653, -0.10374454408884048, -0.12349219620227814, -0.2538822889328003, -0.25994738936424255, 0.03116566315293312, 0.250517338514328, -0.06292616575956345, -0.12357393652200699, 0.05466946214437485, -0.32636773586273193, -0.10240917652845383, -0.2633056342601776, -0.09729502350091934, 0.08645983040332794, 0.08005204796791077, -0.15944898128509521, -0.006714474875479937, -0.004850374069064856, -0.10297702997922897, 0.004143932834267616, 0.19006231427192688, 0.008642610162496567, 0.08945194631814957, -0.04143022000789642, 0.019015688449144363, 0.19085551798343658, 0.24010734260082245, -0.2778363823890686, 0.22615045309066772, 0.04998021572828293, 0.037721212953329086, -0.05775604024529457, -0.06702938675880432, -0.1788143366575241, 0.014154905453324318, -0.15731795132160187, 0.23986275494098663, 0.083710215985775, -0.13358010351657867, 0.48995575308799744, 0.13327474892139435, -0.042163483798503876, -0.033070966601371765, 0.011147171258926392, -0.19630634784698486, -0.1889566034078598, -0.11172456294298172, 0.08501981198787689, 0.06193181499838829, -0.10530267655849457, -0.12078993022441864, 0.026438770815730095, 0.011000635102391243, 0.31222712993621826, -0.1702670007944107, 0.40344610810279846, -0.2784965932369232, 0.13416430354118347, -0.29418569803237915, 0.45159628987312317, -0.04366268217563629, 0.11810606718063354, 0.19324898719787598, -0.20149780809879303], [0.34892165660858154, 0.24759149551391602, 0.27351877093315125, -0.01814342848956585, -0.0008362335502170026, -0.09561458975076675, -0.017931601032614708, -0.0907435342669487, 0.10649839043617249, -0.38430464267730713, -0.11123454570770264, 0.1150510162115097, 0.2946895360946655, 0.0965116024017334, -0.06745151430368423, -0.08476392924785614, 0.017694685608148575, -0.15580663084983826, -0.1494234949350357, 0.2088920921087265, 0.08173517882823944, -0.2129473090171814, -0.17671343684196472, -0.21041446924209595, 0.007707693614065647, -0.21688662469387054, -0.014154484495520592, -0.01791011542081833, -0.20098473131656647, 0.08372098207473755, -0.2677772641181946, -0.18368414044380188, 0.24153506755828857, 0.26766523718833923, -0.5407254695892334, -0.45954376459121704, 0.21378640830516815, 0.2181973159313202, -0.060319092124700546, -0.3368809223175049, 0.1498158872127533, -0.5061164498329163, -0.051293954253196716, 0.06477782875299454, 0.17695839703083038, 0.103329598903656, -0.10358575731515884, -0.10525508224964142, 0.02105494774878025, 0.0007072128355503082, -0.2628043591976166, 0.2051326483488083, -0.3971589207649231, 0.13570795953273773, -0.059063177555799484, 0.03098852001130581, 0.05344446003437042, -0.045109111815690994, -0.6009982824325562, 0.05890647694468498, 0.034702595323324203, 0.09176746010780334, -0.18288923799991608, -0.1507885754108429, 0.08146730065345764, -0.13678863644599915, 0.10337510704994202, 0.17902907729148865, -0.06139281764626503, -0.1740567982196808, -0.07322029024362564, 0.22122697532176971, 0.03367650508880615, 0.05156083032488823, 0.173780620098114, 0.0669122040271759, -0.08546748012304306, -0.189696803689003, -0.0008452718029730022, 0.31691381335258484, -0.12173382937908173, -0.15363521873950958, 0.18432359397411346, -0.2649408280849457, -0.056659601628780365, 0.055748432874679565, -0.18276889622211456, 0.37446096539497375, 0.32807081937789917, -0.33932381868362427, -0.49765536189079285, -0.021164288744330406, -0.22102601826190948, 0.0007963168900460005, 0.07995469868183136, -0.15924584865570068, -0.13345101475715637, -0.352275013923645, 0.2584395706653595, -0.09969843924045563, 0.08588138967752457, 0.004626430105417967, -0.04370339214801788, 0.17293642461299896, -0.13756506145000458, -0.17523254454135895, -0.028329843655228615, -0.09848543256521225, -0.172329843044281, 0.2763485014438629, 0.15647025406360626, -0.012770744040608406, -0.3380078971385956, -0.4012705087661743, -0.2482309490442276, -0.09809992462396622, -0.11619318276643753, -0.15100610256195068, -0.1524403840303421, -0.036437712609767914, -0.2447933554649353, 0.13412095606327057, -0.1694762110710144, -0.0763455256819725, -0.041820868849754333, -0.2075377255678177, -0.053265269845724106, -0.0069097657687962055], [-0.07754765450954437, 0.080032117664814, -0.16615723073482513, 0.34804174304008484, 0.0427594818174839, 0.0462239608168602, -0.27089497447013855, -0.32893866300582886, 0.18224339187145233, -0.016528436914086342, 0.07131216675043106, -0.09659122675657272, -0.2707202434539795, -0.03544513136148453, 0.007330263499170542, -0.2570410370826721, 0.02659313753247261, -0.2776210308074951, 0.1262291669845581, 0.015697360038757324, -0.2660539746284485, -0.13037748634815216, 0.044736508280038834, -0.186019629240036, 0.1566362828016281, -0.14597533643245697, -0.04151393473148346, 0.7088094353675842, 0.3530842065811157, -0.2441716492176056, -0.08255675435066223, 0.27370622754096985, 0.13419075310230255, 0.2831757366657257, 0.05003564432263374, -0.16393159329891205, -0.03289104625582695, 0.0061998264864087105, -0.1293855607509613, 0.1818753182888031, 0.05154116824269295, 0.023966951295733452, 0.2689027488231659, 0.04803705960512161, 0.20736239850521088, -0.005738642066717148, -0.09494289755821228, 0.201512411236763, -0.0032340141478925943, 0.046756137162446976, 0.33838599920272827, -0.21327491104602814, 0.05785609409213066, 0.023955484852194786, 0.0036226920783519745, -0.03901318460702896, 0.110832579433918, 0.6113919019699097, 0.06556562334299088, -0.17081128060817719, 0.2060452401638031, 0.2507893145084381, 0.003538324497640133, -0.018320787698030472, -0.2716582119464874, 0.09574379026889801, -0.23651070892810822, 0.17766901850700378, 0.0108481515198946, 0.2757040858268738, 0.12586809694766998, 0.0337991900742054, -0.07101946324110031, -0.22399771213531494, 0.04027019068598747, 0.07351935654878616, 0.30828022956848145, -0.07939871400594711, -0.08686916530132294, -0.05891454592347145, -0.32317858934402466, -0.35313668847084045, 0.026519283652305603, -0.08781206607818604, 0.3688548505306244, 0.21590358018875122, 0.09104162454605103, 0.1021587997674942, -0.04040093719959259, 0.11184009909629822, 0.11858748644590378, 0.15958407521247864, -0.10504023730754852, -0.0952184647321701, -0.09451065212488174, 0.09337779879570007, 0.08365194499492645, 0.01610320620238781, 0.07663866877555847, 0.19675983488559723, 0.0540192648768425, -0.19757969677448273, 0.11222776025533676, -0.18159626424312592, 0.11164136976003647, 0.0007560589001514018, 0.024919431656599045, -0.2837114632129669, 0.18009912967681885, -0.11809085309505463, 0.058699868619441986, -0.20410655438899994, 0.01895628497004509, -0.08961888402700424, -0.05345602333545685, -0.34210526943206787, 0.28486254811286926, -0.36323851346969604, 0.3654116988182068, 0.2521357834339142, -0.320318341255188, -0.22192317247390747, -0.10163906216621399, -0.1031409278512001, -0.035321641713380814, -0.036379970610141754, 0.08003438264131546, 0.48183003067970276], [0.15838098526000977, -0.10036247968673706, -0.11674918979406357, -0.07229255139827728, 0.0167672261595726, 0.03854121267795563, -0.07198712974786758, -0.04964336380362511, 0.09621208161115646, 0.14777623116970062, 0.12108335644006729, 0.14556843042373657, 0.16358299553394318, -0.02646849863231182, 0.11265748739242554, -0.016462648287415504, -0.07228032499551773, -0.08718717843294144, -0.04869691655039787, -0.09449933469295502, 0.04161694273352623, -0.1590418964624405, -0.28063175082206726, 0.18820196390151978, 0.25013285875320435, 0.11633434146642685, 0.08118981868028641, -0.07038697600364685, 0.08022879809141159, 0.03958451375365257, -0.08669130504131317, -0.08693032711744308, 0.1365194171667099, -0.2122994363307953, -0.00836577545851469, -0.04000609368085861, 0.005601051729172468, -0.08748670667409897, -0.16975167393684387, -0.27201804518699646, 0.06104771047830582, 0.010951966978609562, 0.09515828639268875, 0.0810871347784996, 0.2941385805606842, -0.05000197887420654, -0.06430850923061371, -0.06445255130529404, 0.08900051563978195, 0.1472099870443344, 0.1627533733844757, 0.16464854776859283, 0.026146065443754196, 0.20109930634498596, -0.15986286103725433, 0.13791342079639435, -0.17258496582508087, -0.19835130870342255, 0.08558563888072968, 0.07064607739448547, -0.19221022725105286, -0.08257455378770828, -0.03663907200098038, 0.1613244116306305, -0.09562509506940842, -0.12102466076612473, -0.07451026886701584, -0.21897844970226288, -0.0783207044005394, -0.1862832009792328, -0.06514962017536163, 0.13766393065452576, 0.06762079894542694, 0.12998293340206146, -0.05428599566221237, 0.07568836957216263, -0.020786991342902184, 0.05720926821231842, 0.013254924677312374, 0.15125474333763123, 0.21745486557483673, -0.08252575993537903, 0.12342629581689835, -0.2497132271528244, -0.0263418797403574, 0.23903264105319977, 0.06400758028030396, -0.09426891058683395, -0.05473921820521355, 0.04653853178024292, 0.007143493741750717, 0.18237479031085968, -0.2126406580209732, -0.09003756940364838, 0.14746396243572235, -0.1807943433523178, 0.032399363815784454, -0.07897648215293884, -0.0429876372218132, -0.055501267313957214, 0.1409551203250885, -0.08339580148458481, -0.014497916214168072, -0.213950514793396, 0.023600192740559578, 0.19993190467357635, 0.11630650609731674, -0.04489731416106224, -0.2850566506385803, 0.027208887040615082, 0.29300183057785034, 0.16011826694011688, -0.1466391384601593, 0.14402031898498535, -0.04106586053967476, -0.24147650599479675, -0.07599008083343506, -0.0694078803062439, -0.053071532398462296, -0.19294066727161407, 0.01373053528368473, -0.05409890040755272, 0.1813385933637619, -0.3726959526538849, 0.14293475449085236, 0.2179771065711975, 0.061343465000391006, 0.09406972676515579], [0.020764345303177834, 0.09147472679615021, 0.06690368801355362, -0.09027187526226044, -0.021908404305577278, 0.2228434830904007, -0.16900789737701416, 0.4139644205570221, 0.05727113038301468, 0.06976079940795898, -0.3039908707141876, -0.03929665684700012, -0.05686463043093681, 0.15262950956821442, -0.09347854554653168, 0.2377084344625473, 0.03361670300364494, 0.034637004137039185, -0.07732105255126953, 0.2561594247817993, -0.28119561076164246, 0.003447361523285508, 0.09118568152189255, 0.29592838883399963, -0.11069365590810776, -0.4585353136062622, 0.18733404576778412, -0.29205188155174255, 0.2627767026424408, -0.06116696074604988, 0.30962318181991577, -0.07065126299858093, -0.1377812922000885, -0.12095039337873459, 0.07221685349941254, 0.34073641896247864, 0.17336831986904144, 0.2100762277841568, -0.02833643928170204, 0.3500606119632721, 0.1385430097579956, 0.005348564591258764, 0.29515668749809265, 0.009970615617930889, -0.009675552137196064, 0.014941185712814331, 0.1457713097333908, -0.16577039659023285, -0.30410927534103394, 0.11326834559440613, 0.037091873586177826, -0.033751919865608215, -0.2671467661857605, -0.07417625188827515, -0.2011307030916214, 0.027752328664064407, 0.05768795683979988, -0.05221428722143173, -0.16860485076904297, -0.15336823463439941, 0.08776196837425232, 0.029114728793501854, 0.01770874485373497, 0.4507119059562683, -0.07318709045648575, 0.3128378689289093, -0.0035282010212540627, -0.06640475988388062, -0.11630932986736298, 0.08144012838602066, 0.1472286731004715, -0.12704911828041077, 0.33094727993011475, -0.04766378924250603, 0.0195267703384161, 0.03226814419031143, 0.11951019614934921, 0.2234572172164917, 0.26691943407058716, 0.4040161669254303, -0.024780351668596268, -0.16228339076042175, -0.29114872217178345, 0.09840521216392517, -0.01868271827697754, 0.2736321985721588, -0.04302659630775452, 0.04017588123679161, 0.06400439888238907, -0.16938923299312592, 0.05433722585439682, -0.20528535544872284, -0.07971785217523575, -0.43947818875312805, 0.15527653694152832, 0.2771090567111969, 0.026129791513085365, -0.2219887524843216, 0.007187562063336372, -0.17581936717033386, -0.004211283288896084, -0.08112499862909317, -0.04124493896961212, -0.1982048749923706, 0.2579789161682129, 0.21578897535800934, 0.06344069540500641, 0.1369730532169342, 0.018538029864430428, -0.059191882610321045, 0.2478998601436615, 0.2486087679862976, -0.1999049186706543, 0.18265286087989807, 0.29757264256477356, -0.1930365115404129, 0.15441714227199554, -0.14908581972122192, 0.03588726371526718, -0.008069956675171852, -0.016059372574090958, 0.03355865925550461, 0.014731006696820259, -0.34255450963974, -0.11863777041435242, 0.04221152141690254, 0.35797202587127686, 0.07641942799091339], [0.009467655792832375, -0.06203295662999153, -0.12167495489120483, 0.02801341563463211, -0.0795738473534584, 0.1074780523777008, -0.22206351161003113, -0.12935036420822144, -0.15585556626319885, 0.13402602076530457, -0.06637179851531982, 0.02595876157283783, -0.1557488739490509, -0.18294590711593628, 0.27180272340774536, 0.011064484715461731, -0.05688471347093582, -0.27283811569213867, 0.16540749371051788, -0.06832793354988098, -0.027477474883198738, -0.09653899073600769, -0.18164941668510437, 0.09957513213157654, 0.10075315088033676, -0.1001373901963234, -0.18116210401058197, -0.06970716267824173, 0.18898090720176697, -0.051876749843358994, -0.02344634383916855, 0.2863557040691376, -0.09949031472206116, -0.09257590025663376, 0.05156233534216881, 0.27128592133522034, -0.20772996544837952, -0.25785553455352783, -0.04885348677635193, -0.01299376506358385, -0.15725106000900269, 0.26787465810775757, -0.16811935603618622, -0.2455417662858963, 0.05018971860408783, 0.19286292791366577, -0.13614003360271454, -0.16909141838550568, -0.004361624829471111, 0.210023432970047, 0.20689091086387634, -0.1425713747739792, 0.12202887237071991, 0.032098740339279175, 0.2723756730556488, -0.08732093870639801, -0.017193511128425598, 0.10795895010232925, 0.12450273334980011, 0.24860064685344696, 0.0914774090051651, 0.06260856986045837, -0.003339046146720648, 0.03260459378361702, 0.18019385635852814, -0.16143780946731567, 0.18146760761737823, -0.1907857209444046, 0.13693124055862427, -0.13592636585235596, 0.1783842146396637, -0.21508502960205078, -0.15112386643886566, -0.061923135071992874, 0.11077775806188583, -0.16139060258865356, 0.2623072862625122, -0.35392364859580994, 0.17701689898967743, -0.1872590333223343, 0.02763785794377327, 0.18190327286720276, 0.05124347284436226, 0.17071397602558136, 0.1552814394235611, 0.008276404812932014, 0.060674138367176056, -0.10218539088964462, -0.20398469269275665, 0.3560018837451935, 0.16396278142929077, 0.05481552332639694, -0.28670263290405273, -0.09101255983114243, 0.051270898431539536, 0.09319707751274109, -0.07694055885076523, 0.07812832295894623, 0.011676392517983913, 0.22168338298797607, -0.04605204984545708, -0.11537591367959976, -0.1540234237909317, -0.06557772308588028, 0.3802759051322937, -0.019769232720136642, -0.09229157865047455, -0.10190717875957489, 0.17554470896720886, -0.021414194256067276, 0.09213539958000183, 0.3125891089439392, -0.17504362761974335, -0.021669449284672737, -0.005498222075402737, -0.17723873257637024, 0.28573212027549744, -0.1777215600013733, -0.07893155515193939, 0.002592668170109391, -0.04787490889430046, 0.11930789053440094, 0.11590681970119476, 0.12790603935718536, 0.4168463945388794, 0.009255634620785713, -0.05148977041244507, 0.0934811383485794], [-0.07393502444028854, -0.013623752631247044, -0.23713940382003784, -0.2335577756166458, -0.011839758604764938, 0.05428491532802582, -0.16457703709602356, -0.05462491884827614, 0.07525847852230072, -0.05367300659418106, -0.06542863696813583, 0.10918599367141724, -0.13176429271697998, -0.2639581561088562, 0.042011555284261703, -0.20121732354164124, -0.12280198186635971, -0.09143949300050735, 0.12306033074855804, -0.12063372880220413, -0.02696247212588787, -0.11441582441329956, -0.03318382054567337, 0.001670096768066287, 0.3292383849620819, -0.0435851588845253, -0.06954465806484222, -0.07090450823307037, -0.2518881857395172, -0.2589953541755676, 0.01552562229335308, -0.20347924530506134, -0.06865553557872772, 0.07349275052547455, 0.2701053321361542, -0.08766099065542221, -0.03576812520623207, -0.26537734270095825, 0.0074321674183011055, -0.1438312530517578, -0.10467179864645004, 0.10151505470275879, 0.1938616931438446, -0.09558602422475815, 0.015739139169454575, -0.1596607267856598, -0.1124272495508194, -0.027816560119390488, 0.007894392125308514, -0.09706618636846542, 0.3021130859851837, -0.02902098558843136, -0.30574536323547363, 0.21441936492919922, -0.08304601907730103, 0.058194056153297424, -0.09402097016572952, 0.04429667070508003, 0.06001077964901924, 0.0030923972371965647, 0.06981336325407028, 0.21194347739219666, 0.0534287728369236, 0.01242592092603445, 0.09859947115182877, 0.15651562809944153, 0.04693179950118065, 0.02159508876502514, -0.08671152591705322, -0.3198596239089966, 0.047452662140131, -0.09042875468730927, -0.2411583960056305, -0.05582601577043533, 0.3875882625579834, 0.0031887665390968323, -0.03936748206615448, 0.14435070753097534, 0.0696001946926117, 0.03937649726867676, -0.06577461212873459, 0.18756434321403503, 0.0021566415671259165, -0.2728489637374878, -0.08542230725288391, -0.10212547332048416, 0.12916508316993713, 0.07641516625881195, -0.32657986879348755, 0.14172688126564026, -0.31928369402885437, 0.2862795293331146, -0.15507373213768005, 0.07014214247465134, 0.06654199957847595, -0.0951039269566536, 0.02520477958023548, 0.014409543015062809, -0.05082103982567787, -0.1543678194284439, -0.11532189697027206, 0.12950508296489716, 0.030208585783839226, -0.011886665597558022, -0.008672297932207584, -0.0024228175170719624, -0.1479213535785675, 0.11388646811246872, -0.032159335911273956, 0.1938173770904541, -0.011517250910401344, -0.1451254040002823, 0.07159795612096786, -0.02690369449555874, -0.12582290172576904, 0.048179447650909424, -0.15006811916828156, -0.04118085280060768, 0.06137896701693535, -0.3209449052810669, 0.05450691282749176, -0.03933905437588692, 0.06141500547528267, -0.41086089611053467, -0.03685273230075836, -0.06685316562652588, -0.12827782332897186, 0.23374632000923157], [0.18329505622386932, 0.15794573724269867, -0.18233872950077057, 0.11545796692371368, 0.19038145244121552, 0.26884064078330994, -0.16517065465450287, 0.24147117137908936, -0.12287654727697372, 0.06246398016810417, 0.07825296372175217, 0.022571882233023643, 0.12587198615074158, -0.3378864824771881, 0.06162505969405174, -0.3028451204299927, 0.11173678934574127, -0.30049312114715576, -0.07514666765928268, 0.22442899644374847, -0.12249758094549179, 0.002795926295220852, 0.10391063243150711, 0.21947379410266876, 0.19979017972946167, 0.0032447262201458216, 0.0771884098649025, -0.14716465771198273, 0.07640433311462402, -0.014035329222679138, 0.09124680608510971, -0.11387800425291061, 0.14285923540592194, 0.09374091029167175, 0.0562187060713768, 0.02497098036110401, -0.2644445300102234, -0.12258919328451157, -0.24736782908439636, -0.01369904913008213, -0.1785745620727539, 0.019457802176475525, 0.33998361229896545, 0.04883526265621185, 0.33822667598724365, -0.09823304414749146, 0.14108526706695557, -0.3148380219936371, -0.2221943736076355, 0.09150737524032593, -0.06906244903802872, -0.13475175201892853, -0.08385209739208221, 0.043388571590185165, -0.3863515555858612, -0.37608474493026733, 0.33154428005218506, -0.3245842754840851, -0.07624464482069016, -0.022004805505275726, -0.04365091398358345, 0.14460156857967377, -0.008436409756541252, 0.005945008713752031, 0.06016283109784126, 0.33964332938194275, 0.06889309734106064, 0.219576895236969, 0.20984873175621033, -0.06694026291370392, -0.016780460253357887, -0.13087622821331024, 0.1681205779314041, 0.19558008015155792, 0.0652533769607544, 0.20099565386772156, 0.19040727615356445, 0.41592368483543396, 0.11936211585998535, 0.0894903615117073, 0.026046909391880035, -0.13542848825454712, 0.05019358545541763, 0.07898863404989243, 0.0003302391560282558, 